-0.25292 -0.452013 0.98973 0.28675 0.864592 0.472461 -0.2846 -0.14753 0.403492 0.744107 -1.32947 -0.498343 0.635049 -0.3596 -0.433028 -0.201729 -0.875221 0.221727 0.466376 0.495079 -1.05258 1.06006 0.472915 0.748031 0.450743 1.17974 0.790416 -0.0810233 -0.902721 1.20262 -0.53452 0.38229 -0.934094 -0.0805352 -0.225062 -0.871409 1.95571 -0.737193 0.804202 0.423198 0.590989 0.564088 -0.741148 -0.245912 0.494685 -0.0721361 -0.526498 0.50319 1.05628 -0.79957 -0.75047 0.661461 0.0825169 -0.636703 0.0299302 -0.48812 0.457433 0.644201 0.103809 0.0622291 0.291721 0.271245 -0.21109 -0.860409 1.0724 0.980322 1.19652 0.356761 0.416761 -0.125192 0.434404 -1.07001 -0.49876 0.25009 0.393964 -0.465922 0.0804029 -0.786251 1.47336 0.53609 0.5669 1.70948 -0.711391 0.884135 0.0310058 -1.10879 0.259767 0.359901 0.0175069 0.554163 -0.278745 0.480836 -0.464945 1.13053 0.977698 1.22644 -0.0509158 -0.955842 -1.49495 -1.33482 0.627863 -0.140526 0.927221 -0.179353 -0.620305 0.429052 0.0477655 -0.178368 0.00186673 0.647617 0.657509 -0.769783 -1.34938 -0.684185 -0.354671 0.38923 -0.359408 -0.366406 -0.410024 1.22516 0.852308 -0.659264 0.577869 -1.01306 -0.489469 -0.0805368 -1.3731 -1.82996 -0.511188 -0.566548 1.27424 -0.236677 1.1146 0.405019 0.366097 -0.345304 0.0757095 1.25019 -1.38086 0.972577 -0.946387 -0.00147342 -0.135895 0.853535 -0.378605 -0.17079 0.308031 0.27076 0.663214 0.726934 -0.893247 -1.04016 -0.982549 -0.898852 0.400771 -0.488721 -0.443927 -0.0822166 1.29497 0.421525 0.707949 -0.0347516 1.13598 0.276865 0.667939 -1.10693 0.662992 0.421612 1.23031 1.1051 0.0930513 -0.521894 0.359666 -1.57429 -0.181306 0.615572 0.355851 -0.266464 0.272716 0.995757 0.554357 0.102469 -0.0989595 0.418022 -0.0901487 -0.127964 -0.952809 0.646218 0.281469 -0.383956 -1.21474 0.326999 0.799732 -0.834323 0.665987 0.756609 1.44229 0.210019 0.250693 0.490275 0.0953566 -0.0646976 -0.164587 -0.18256 0.29416 0.280043 0.590305 0.545268 0.361486 0.367585 0.868451 -0.108252 -0.040021 -0.272861 1.44019 0.738907 0.450957 0.392385 -0.21838 0.675216 0.532126 0.455456 0.224465 0.973415 0.101203 0.761874 -0.6909 -1.05669 -0.837982 -0.0256838 -0.796355 0.54205 0.0917765 -1.0198 -0.116909 0.370894 0.464734 -0.104568 0.737459 -0.28782 0.0672081 -1.3085 -0.119677 0.481562 -0.0831622 0.119432 1.89528 -0.0968846 0.000982961 0.478633 -0.0574613 -0.0992722 -0.738267 0.928585 -1.57051 0.500546 0.73477 1.10363 0.027629 -0.171076 0.202067 0.97823 -0.237919 -0.35729 -1.13998 0.36758 0.840688 0.442137 -0.818484 1.23758 -0.0653176 -0.42785 1.07375 -0.066037 1.24182 -0.184701 0.934671 0.207841 0.737352 -0.201605 -0.0952894 0.0268798 0.937268 -0.346298 -1.35244 0.336219 -0.113228 0.052498 -0.150042 -1.29002 0.157885 0.118679 -1.00774 -0.961391 0.764208 0.307001 0.0681653 -0.0074129 0.571323 0.190441 0.556768 0.597557 -0.70437 0.175491 0.025315 0.527378 -0.570795 1.02592 -0.258444 1.03909 0.624521 0.488807 0.878192 -0.159154 0.329203 0.861262 -1.13083 0.303684 0.443996 -1.03102 -0.380454 1.50855 0.247631 0.43566 -1.77932 -0.332284 1.30288 -0.0733201 0.624861 -1.07933 1.38605 0.219163 0.52698 -1.66559 -0.0862909 -0.142553 -0.368478 -1.6218 0.282756 -0.691298 0.384622 0.338358 0.401958 0.995497 -0.07681 -1.08646 0.267978 0.341637 0.478981 0.30935 0.0615594 -0.0436381 -0.820847 0.333473 -1.25663 0.0159738 1.01617 0.152174 -0.859104 -0.830059 0.243778 0.780988 0.699333 1.20216 0.56498 -0.59479 -1.40642 0.325222 0.550479 -0.413009 0.296184 0.016644 0.609578 0.833902 -0.997413 0.72686 0.800363 0.997253 0.790345 -0.896671 0.931569 -0.63016 -0.0233789 0.44811 -0.919787 0.78902 0.518765 0.0656085 0.543371 0.433683 -0.914604 -0.455204 0.198004 1.09079 0.588195 -0.610434 -0.544576 0.494599 -0.41109 0.276098 0.523062 0.267326 -0.0613128 0.530846 -0.447503 -0.587843 -0.419478 0.484912 -0.901472 -0.536207 -0.474083 0.14015 -0.994556 -0.239452 -0.758264 -0.501005 0.141889 -0.830645 1.11035 0.217318 -1.31081 0.354958 -0.603266 -0.556558 -0.078146 -0.446753 0.191939 0.321559 -0.141859 -0.557238 -0.0626425 0.601517 -0.15629 0.284458 -0.134997 -0.797113 0.638732 -0.177854 -0.237505 0.820419 -0.589931 -0.127146 -0.579236 -0.259493 -0.563303 -0.600759 0.610011 1.89685 0.457154 -0.346821 0.396045 0.725966 0.680837 1.17938 -1.42882 0.645214 -0.20056 -0.471544 -0.473848 1.36072 -0.113696 -0.0724394 1.31219 -0.945531 0.117767 0.652175 1.58236 0.652003 -1.4217 0.326122 -0.186143 -0.0610872 0.0178483 0.100873 -0.00642193 0.461433 0.189095 0.98572 1.28143 0.685042 0.727526 -0.210488 -2.13354 0.0790007 -0.0675392 0.706171 -0.410701 0.590195 1.03209 -0.342358 0.80397 -0.864356 -0.391163 -0.982972 0.655057 -0.301586 -0.577634 0.261235 0.0547185 -0.40711 -0.750469 0.506351 0.272477 -0.564696 -0.384475 0.713628 -0.349208 -0.164918 -1.18474 0.214797 0.131285 -1.00332 
-0.458064 0.0985946 0.190638 0.074462 0.409427 -0.332261 1.02178 0.518568 0.111174 0.656663 -1.19784 -0.408703 -1.20353 -0.280309 0.545586 0.665389 -0.0248185 -0.218815 0.264658 0.393386 -1.08897 -0.686297 -0.0309199 0.112652 0.361975 -0.428627 0.694712 -0.330684 -0.563882 -0.336952 -1.65065 -0.361251 0.253962 0.602293 0.0780762 -0.69219 0.520141 -1.799 0.458673 -0.285868 -0.499235 0.0287953 -0.135906 1.31892 -0.0346055 -0.16643 -0.683831 -0.411515 0.337798 0.158554 1.17415 0.536877 -0.492132 -0.181376 -0.349732 1.25284 0.160271 -0.644012 -0.640591 -1.39724 -0.592019 -0.171422 -1.33277 0.291411 0.15355 0.57283 0.553595 -0.225485 -0.152573 -0.485709 -0.0121433 0.943925 0.257005 0.767329 0.0510055 0.213096 0.527832 0.791206 -0.703933 -0.796158 0.507251 0.377922 0.18822 0.171719 0.23285 -0.247485 1.22794 -0.628084 0.755892 -0.330454 0.342735 0.705101 0.256524 0.123664 0.000686701 0.00332561 0.854277 2.41386 1.72093 -0.126183 0.643211 1.0456 0.0773615 0.839754 0.448105 -1.41854 -1.14471 1.19136 0.843518 0.184115 0.585587 0.184457 -0.520519 -0.595729 -1.20826 0.634325 -0.0102171 -0.754008 0.444734 1.11408 0.665806 1.4627 0.885339 1.15929 -0.029618 -0.490451 0.0433238 -0.0362451 -0.119696 0.849119 -0.545818 0.461458 -0.559396 0.263448 0.9536 -0.914735 -1.14081 -0.797523 1.16308 -0.664924 -0.49442 0.151971 0.884168 1.23708 -0.334763 -0.0762749 0.677861 -0.0281298 1.29846 -0.202947 1.04816 0.149613 0.146336 0.151148 0.574456 0.479384 0.659193 1.15227 -1.27291 0.401453 -0.308579 0.204078 -0.542068 0.363274 0.272917 -0.097051 -1.33913 -0.0877222 1.8407 -0.218624 -1.15986 -0.258165 1.2146 0.478003 -0.763548 -0.45094 -0.0141502 -0.580292 1.10856 0.603167 0.139883 -0.82924 -0.315711 2.07756 0.251268 -0.45927 0.531805 0.0924873 -0.49929 0.464554 1.3069 0.0960474 0.83337 0.58223 -0.349602 0.118853 -0.744838 -0.715683 0.876012 -0.814376 0.452321 -0.301113 0.356329 0.403792 -0.0378748 -0.257177 0.268092 0.0244385 0.769418 -1.01307 0.145118 0.0555283 0.281131 0.178309 -0.0138845 0.572734 0.232336 0.792511 -0.602528 -0.18119 -0.370471 1.12271 -1.23959 0.818294 0.0856022 0.963852 0.712974 -0.552666 -0.329086 0.284328 -0.112969 -0.501579 -1.22712 -0.393294 0.273336 0.497589 -0.220263 -0.555439 0.774564 1.5851 -0.364407 -0.966888 -0.77807 -0.678504 -0.256371 -0.504565 0.994445 0.758542 0.392856 0.364023 0.947509 0.109138 1.01591 1.61381 0.198177 0.576594 0.859527 0.205381 -0.687593 -0.185651 -0.179513 -0.0402345 0.320211 1.12618 -0.0835331 -0.906006 0.126896 -0.401278 0.644368 -0.762103 0.745637 -0.681558 0.248255 -0.626237 0.188308 0.521906 -0.0364579 -0.364422 -0.813028 -0.742073 0.312192 -0.383361 0.317274 -0.208605 0.555131 0.0869006 -0.413105 0.0674109 1.12416 0.576469 -0.450047 0.475711 0.547926 0.159936 -0.334504 -1.0977 -0.701629 1.45039 0.493454 -0.13711 1.84611 -0.119728 -0.53477 -1.16293 0.93754 0.709373 -0.487669 0.937993 0.945887 0.921721 0.138763 0.556284 -0.62363 -0.42887 0.619264 0.861879 0.448663 -0.0806538 -0.687605 -1.0949 -0.00526534 0.291923 0.00137653 0.33335 0.0416922 1.52928 0.0740137 0.361618 1.60831 -0.728487 0.034792 -0.447691 0.105469 0.107467 -1.54177 0.569952 -0.362975 0.141293 -0.888122 0.399918 0.507121 0.987995 1.07782 -1.09642 0.163911 -0.0721245 -1.55345 -0.576462 -0.624499 -0.765409 0.461673 -0.790173 0.432175 0.606804 0.115634 -0.610033 -0.724732 0.655503 0.484012 -0.370809 -0.107956 -0.516292 0.768356 0.5447 -0.291222 -0.873809 0.266042 -0.293655 -0.170511 -0.315613 0.776959 0.542444 -0.442196 0.278616 -0.0427826 0.125658 -0.371972 -0.416477 0.714128 1.85513 -0.276084 -0.370962 0.263739 0.244053 -0.201288 -0.229909 -0.692182 -0.361599 1.47052 0.44119 0.975097 -0.4228 -0.0998598 0.16644 0.350601 0.210092 -0.529779 0.363593 0.674426 0.654068 -0.356539 -0.843471 -0.744797 0.555971 0.283697 -0.410477 -0.565198 0.313078 0.743168 -0.410064 -0.666296 1.47467 -0.284028 0.0266127 -0.799416 -0.0337339 -0.414125 -0.238787 -0.135637 0.484106 0.201583 0.0800234 0.620797 -0.765427 0.26562 0.478761 -0.0502841 0.589234 0.0427377 -0.672795 0.239413 1.47822 0.822483 1.54692 0.327129 0.581928 -0.298366 -0.308864 -0.527166 0.0319393 -0.0453453 -0.668957 1.05841 -1.18079 -0.23714 0.241161 -0.532819 -0.362005 0.0953292 0.362718 -0.837487 0.0620531 -1.16762 0.385353 -0.684368 -0.566905 0.301426 -1.31003 0.435297 0.349031 1.20639 1.52312 -0.130667 0.142412 -0.47141 0.0266926 0.0385625 0.694042 -0.561711 0.795524 0.203844 -0.527151 0.63469 -0.429187 -0.388063 0.22802 0.651968 -1.0753 -0.670786 -0.211892 -0.092899 -0.257113 1.71762 0.594959 -0.251743 -0.506167 -0.0041331 0.437306 -0.225093 -2.26122 0.359262 0.0806057 0.508072 1.05039 -0.559176 0.347241 -0.29868 -0.692456 0.957869 0.411409 0.0696537 -0.553976 -0.770789 -0.366336 -0.396792 0.27355 0.159921 -0.573108 -0.513321 -0.855515 0.178342 1.20305 
-0.622589 0.617032 -0.0821354 -1.14618 0.153104 -0.154003 -0.0828759 1.20068 -0.0126035 0.0367764 0.126179 0.103419 -0.534678 -0.406662 -0.755021 0.841792 -0.49061 0.841046 -0.790565 0.782152 0.551535 -0.557386 1.00841 -0.235754 0.99086 0.526553 0.0685246 0.150176 1.19424 -1.18485 0.837454 -1.30247 -1.5981 -0.755277 -0.212014 -0.454243 -0.407251 -0.185248 0.852847 -0.244771 0.939424 -0.189779 0.0991249 -0.102875 1.27867 -0.681134 -0.172531 0.893387 0.262717 0.279234 -0.106927 0.48979 0.173912 -0.326219 -0.578754 0.308239 -0.454515 -1.14845 0.428926 -0.316683 1.30492 -0.21418 -1.38075 -0.899272 -0.483696 -0.276643 -0.764573 1.02815 -2.18992 -0.0376779 -0.594369 -0.829169 -0.716273 0.753121 -0.739333 0.849239 0.622871 0.465714 -1.18164 -0.203259 0.993403 -0.396016 0.451205 1.00448 -0.0266914 0.00972278 0.139608 -0.0224284 -0.186416 -0.429676 -0.37085 -0.354111 0.248361 -0.657725 -0.208158 -0.0178394 0.486098 1.48101 0.614648 -0.425762 -0.148857 0.359617 -0.621909 0.728291 1.15727 -0.865176 -0.482449 -0.638177 -0.435983 -0.734743 -0.652279 0.834377 -0.3824 0.655804 0.183969 -0.55689 -0.223658 -0.685902 -0.707464 0.0105164 -0.128813 -0.468153 -0.0470404 -0.0648668 -1.57212 -0.176864 -0.521468 -0.0634184 0.400563 0.377883 -0.481266 0.456358 -0.568165 0.686417 -0.0132208 -0.143363 -0.0383233 0.943801 0.01868 0.0473512 0.683988 0.187098 -0.307984 -0.0770756 0.265003 0.424957 -0.129035 -0.326681 -0.990311 -0.122619 1.02439 -0.849686 -1.02706 0.704858 -0.0599259 0.0888687 0.284722 -0.981992 0.743472 -0.188005 0.79317 0.438544 0.749448 0.679902 0.0790036 0.903302 0.43776 -1.15978 1.10968 -0.463629 -0.0974039 0.715389 0.494506 -1.03051 0.510941 -1.02051 0.599344 -0.0270573 -0.442918 -0.774223 0.238403 0.346362 0.291028 -0.278505 0.393006 1.44369 -0.316974 -0.142203 0.0519956 0.0984493 1.17161 0.523686 -0.504432 0.498162 -0.206695 -1.12621 0.838784 -0.767975 -0.135367 -0.550937 -0.773248 -0.868734 -0.233532 0.0816988 0.26713 0.0259103 0.461061 0.43273 1.1569 -0.211557 0.363984 0.0487898 0.59208 -0.930454 -0.208137 0.311486 0.441063 0.50441 -0.142533 -1.56807 -1.35891 0.474346 -0.115214 -0.247073 -0.140939 -0.269186 0.284291 0.956517 -0.0859288 0.173994 0.430368 0.171161 0.09459 0.381036 -0.319929 -0.875095 -0.00223843 0.292836 -0.484958 0.0895202 -0.974711 -0.592254 0.411406 -0.23241 0.665249 -0.754199 -0.988153 0.34852 0.261899 -0.154902 0.169902 0.450957 0.442054 -0.334515 -0.33533 -0.428295 0.590397 -0.204744 0.413417 0.751809 0.101914 -0.0530147 -0.541844 -0.67452 -0.286415 0.32162 0.887731 0.714969 -0.736072 0.792414 0.31005 -0.132698 -0.0905842 0.37381 -0.13637 0.204486 0.46069 0.771394 0.183476 -0.436834 -1.19435 0.32427 -0.42911 0.731067 -0.289698 0.688699 -0.149287 0.305845 -0.162437 0.701387 0.576565 0.0160316 0.549198 -0.414306 0.103916 -0.00739807 0.393725 0.409988 -0.0261682 0.243727 0.685708 -0.171854 -0.403129 0.313853 -0.471218 -0.975865 -0.327603 0.530302 -0.296219 -0.123402 -0.039917 0.654094 -0.732979 0.0586434 0.186122 0.25184 0.193457 -0.0100636 0.81712 0.129424 -0.332541 -1.44656 0.399211 -0.5668 -0.609051 0.427038 -0.331391 -0.753264 -0.248296 0.463986 -1.42625 -0.406136 -0.395621 0.25134 -0.200132 0.156246 0.68442 -1.00487 -0.761491 0.261186 -1.05561 -0.380669 -0.91889 -0.163656 1.47028 0.139005 1.59668 -0.0244776 0.0308891 -0.122027 -0.254799 0.0935481 0.332409 -0.917521 0.724332 0.176979 -0.0653811 -1.32079 -0.556183 -1.1986 0.691663 -0.441887 -0.249678 -1.04782 -0.241774 -0.486541 0.112972 0.426103 -1.01384 0.0711363 0.0646005 -1.09259 0.432157 -0.73067 0.42424 0.190015 1.45913 0.317946 -0.611909 -0.95143 -0.171597 -0.150408 0.45999 -0.400147 0.154239 -0.00268761 -0.891633 -0.313235 -0.71718 -0.0451103 -0.495604 0.851157 -1.27314 0.161135 1.24623 0.333031 -0.357862 -0.59087 -1.25784 0.208864 1.45713 -0.0742111 0.76002 -1.28416 0.537501 0.275092 0.419933 -0.0387655 -0.0459822 0.124196 0.131879 -0.451308 -1.21645 0.789617 0.397825 -0.298085 -0.275155 0.255182 -0.707689 -0.29398 0.331817 0.233279 0.184794 -0.152014 -0.127668 -1.241 -0.439431 0.222229 -1.12902 -0.134523 -0.141162 -1.36637 -0.0173736 0.603905 0.505674 -1.81865 -0.0770672 -0.338087 -0.25926 0.208999 0.613414 0.619094 -0.190969 0.3258 0.434346 0.730228 -0.229248 0.128153 -0.181151 -0.539113 -0.475451 -0.158098 -0.0101399 -0.472715 -1.0527 0.336697 -1.98588 0.150708 -0.402758 0.0655854 0.558502 -2.4157 -0.239666 0.369015 -0.50001 1.27609 -0.661698 -0.510674 0.22449 0.0162338 0.474172 -0.0561857 -0.450352 0.195397 -0.652375 -0.530494 0.849832 -0.0562276 0.580121 -0.499812 -0.191726 -0.152259 0.335568 -0.800128 -0.686466 -0.571677 0.0725829 0.656763 -0.797722 0.842102 0.353287 -0.721453 0.169446 -0.659764 0.562947 0.207996 -1.1919 -0.328979 0.386418 -0.456094 -0.216871 -0.949439 -0.68669 -1.12858 -0.340088 0.290595 -0.321993 0.185325 1.12771 -0.0478474 -1.5713 -0.559684 
0.184893 0.335932 0.397968 -1.09724 1.05455 0.893445 -0.981488 -0.540799 0.689684 0.0198535 0.615938 0.693057 -0.324214 0.0782605 1.27449 0.465989 1.05759 0.930029 -0.769868 0.0232733 -0.468824 -0.640849 -0.178117 0.852454 -0.681437 0.881541 0.954407 0.444021 0.210607 -0.908868 -0.499022 1.21706 -0.316938 -0.233496 0.642824 1.69892 0.783394 1.27479 1.52141 -0.588442 -0.158398 -0.180847 0.126508 -0.785214 1.26826 0.163248 0.651516 1.14597 -0.0948663 -0.126575 1.03851 -0.83449 -0.168785 0.0346483 -0.46283 0.115456 0.209254 0.600278 -0.791184 0.218133 0.512132 0.0798711 0.977922 -0.843387 -0.227157 0.279776 0.451015 -0.777911 -0.30898 -0.42822 -0.329913 -1.3931 0.612813 -0.845484 -0.143603 0.829919 0.911818 -0.283056 0.00519297 -0.417886 -0.592877 0.101517 -0.862968 -1.54189 0.76121 -0.338925 0.578637 0.377242 0.344722 1.00795 0.372454 0.600125 0.957434 -1.08767 0.428158 0.088742 1.55486 0.368038 0.452175 -0.634972 -0.829744 -0.876639 -0.751463 -0.802976 -0.233747 0.228189 0.30005 1.65728 -0.264095 -1.44988 0.014675 0.126577 -0.86599 0.0249765 -0.350108 -0.20102 0.251423 0.320417 0.176367 0.365557 -0.545719 -0.245789 -0.555088 -0.529133 0.71427 -0.560069 -0.0266335 0.685939 0.0899314 -0.203313 0.572791 0.711715 0.516776 0.583493 0.889257 0.593294 1.01912 0.545465 0.364909 0.758071 -0.447381 -0.256569 0.701554 0.75887 0.13819 0.0305705 0.709716 -0.0231295 -0.224516 -0.0151644 -0.535628 0.807487 0.436823 0.431713 1.02313 -0.0425485 -0.338677 -0.126308 1.35814 0.218983 -0.020125 0.0427518 0.226236 0.508977 0.996122 -0.179092 0.979546 0.0599503 -1.70323 -0.947566 -1.35746 -0.741436 -0.713348 1.23914 0.439225 0.00529717 -0.839047 0.537012 0.0416727 0.167089 -0.480146 0.192362 0.0529121 1.30142 -1.7837 0.595713 -0.579649 0.471934 0.814244 0.644487 1.2581 -0.432059 0.103262 0.873101 0.407226 0.855943 0.484044 -0.641832 0.396066 -0.404478 -0.0955143 -1.06856 -0.0925267 -0.527026 0.206896 0.986063 -0.834041 0.608909 0.786507 0.702069 -0.108259 0.187642 0.429781 0.547857 0.0213505 0.219661 -0.0787225 -1.36781 -0.0058386 -0.336884 0.0152308 -0.710865 0.402427 -0.699928 0.729064 -0.844699 -1.20494 0.674256 0.427032 -1.03854 0.438658 0.15733 0.177149 -0.981587 -0.465934 -0.643891 -0.237952 1.27676 -0.315061 0.631718 0.397936 0.10374 -0.335443 -0.785181 0.119791 -0.897319 1.19888 1.0778 -1.37346 -0.347022 0.646748 -1.26564 1.14186 -0.338263 1.07468 0.400987 0.496844 1.04895 -0.406408 -0.966482 -0.498635 -0.115087 -0.0533651 1.11213 0.649581 -0.348205 0.0649052 0.0288372 0.170801 0.696262 0.722094 0.363587 0.58861 -0.345158 -0.253891 0.0485515 -0.244433 1.02761 1.14068 0.427277 0.659305 -0.633622 0.770598 0.521199 0.413687 -0.642533 1.06022 -0.149398 0.282252 -0.740961 -0.495616 0.122113 -0.462343 0.775576 1.10134 0.053629 0.387864 0.189559 0.939105 1.05149 0.897975 0.532296 -0.121334 -0.247145 1.11505 -0.650398 0.0908086 0.562151 -0.786795 -0.724167 1.62605 -1.2367 -0.205532 0.482091 0.186841 0.307355 -0.570289 -0.245771 0.512365 0.271776 0.569706 0.409295 -0.760621 -0.070064 -0.534642 1.05375 1.09142 -0.432764 -0.974531 0.57421 0.0892139 -0.246425 0.0680583 -0.906882 0.642828 -0.385162 1.15181 1.18942 0.0491089 -0.199949 0.928555 -0.545125 -0.0686552 0.4719 -0.0446312 1.00958 -0.689757 -0.146158 0.216132 -0.167023 -1.1276 -0.956467 -0.627818 -0.64026 0.592702 0.976804 -0.148027 -0.26766 0.453301 -0.933798 -0.548364 -0.0322555 0.567168 -0.0446549 -0.317839 0.206239 -0.157877 -0.402934 0.248921 -0.973507 0.800992 0.548243 -0.959919 -0.27166 -0.308779 0.89708 1.04144 -0.480258 -0.900205 -0.447094 0.942303 -0.195544 -0.116754 -0.264434 0.390653 -0.695376 0.55451 0.0326045 0.85998 0.506557 0.43357 -0.813449 -1.17928 -1.99726 -0.379423 0.47429 -0.751305 -0.777386 -0.507615 0.233913 0.748775 0.84628 1.51719 0.105988 0.44106 0.517535 -0.909646 -0.553506 0.839469 0.167485 -0.154147 0.557455 1.23471 0.000939311 1.26238 0.819592 -0.267879 1.20939 -1.01591 0.346486 0.278288 -0.200277 -0.815325 1.27587 0.368559 -0.481179 0.330406 -0.269165 0.42565 1.2291 -0.209629 -0.132779 0.609358 0.00410107 -0.535829 1.41485 1.14195 -0.622125 1.44338 -1.50782 -0.267493 1.56744 -0.730741 1.11723 -1.40557 0.394747 -0.887733 -0.159207 0.00298741 1.13077 -0.557741 -0.186131 1.62029 -0.0146682 0.364034 -0.361073 -0.561544 0.597929 0.265021 -0.359316 -1.19215 2.59749 1.21795 0.982377 0.135569 -1.43967 0.842378 -0.296775 0.500467 0.22149 -0.211938 0.619048 -0.986453 -0.327857 0.296459 0.727192 -1.07375 0.183455 -0.275746 0.15384 -0.837669 -0.41833 -0.365155 -0.112729 -0.229698 0.63679 0.191925 -0.186354 0.486032 -0.826081 0.145812 -0.318975 -0.197505 -0.248123 0.325946 0.255208 -1.23767 0.251256 -0.413715 0.706489 0.782538 0.577623 0.241432 0.86092 0.184346 0.764633 -0.151378 1.10141 -0.776158 0.690166 0.647017 0.368568 
0.910579 -0.289054 0.664978 0.794371 -0.351718 0.179138 0.2198 -0.463651 -0.651311 -1.5019 0.11024 0.127079 -0.576783 1.90185 0.0753483 -0.615027 -0.718365 -0.224686 -0.826925 -1.27601 -0.520822 0.235835 0.203011 -1.03022 0.0598423 -1.56931 -0.150358 0.943948 -0.208756 -0.316113 1.32512 -0.268761 0.773183 -0.400275 0.165122 0.707697 -0.853564 -0.200424 0.647309 0.794005 -0.141979 -0.0222488 -0.0487072 -0.859901 0.413372 0.109691 -0.135488 -0.35079 -0.50935 -1.52012 1.03216 0.0918135 0.300187 -0.202981 0.059522 -0.138907 -0.431237 -0.288139 1.17793 0.184682 -1.224 -0.212257 0.21729 1.68215 0.366174 0.587779 0.461441 0.559845 -0.0541016 1.47648 -0.187941 0.693493 0.508523 0.051006 0.309576 0.835152 -0.0409813 1.32664 1.84671 0.537703 0.487703 0.0184099 0.369421 -0.314352 0.369637 -0.221935 -0.511336 -0.14896 -0.455514 0.57483 -0.0228966 -0.361309 -1.49871 0.177142 0.839396 -0.887578 -1.03611 -0.853605 0.838501 -0.405325 0.150944 -0.328471 -0.270999 -0.878291 -0.137647 1.63735 -0.281609 1.08061 -0.210972 -0.0676113 -0.415628 0.265027 0.955812 0.25378 0.737559 0.214758 0.726264 -0.0422925 -0.54991 -0.374411 -0.361437 0.851213 -0.234516 1.27902 -0.0056778 -0.331419 -0.574884 -0.357895 0.0632784 0.463335 0.275362 1.16096 1.04164 0.175729 -0.65302 -0.0700835 -0.567396 0.997803 1.61535 0.0982827 -0.00674666 0.187944 -0.399239 -0.395863 -0.274578 -0.672624 1.66954 -0.195292 0.361634 0.40483 -1.10807 -1.37213 0.200581 -0.438369 0.868465 0.29216 -0.418473 -0.0448981 -0.524883 -0.211829 0.750798 -0.0414406 0.651445 0.396256 -1.30187 0.638919 0.229578 0.13797 1.60717 -0.196174 0.12631 0.187234 -0.211033 1.15353 -0.545991 0.142437 0.976688 0.527846 0.642995 -1.35193 -0.121149 -0.785144 0.180373 0.395316 0.561787 0.314797 -0.986497 -0.0546897 -0.035972 -1.19289 -0.768194 -0.399265 -0.390386 1.67376 0.296077 0.0193048 0.191032 0.944389 0.237974 -0.0708181 0.572251 -0.14622 0.505791 0.741501 0.702092 0.795687 0.266064 -0.0689426 0.446496 -0.958219 0.511678 0.0950977 0.486871 0.104575 -0.898261 0.508933 -0.158729 0.441013 -0.99779 -0.212673 0.380112 -0.453145 0.800662 0.12333 -0.327654 -0.0225791 -0.177883 -0.0430792 0.477966 -0.0985653 0.135266 0.894882 0.907082 -0.842541 -0.23374 -1.36005 -0.160464 0.515645 0.549241 0.141927 -0.288437 0.298305 -1.24775 -0.526306 -0.648279 0.20199 -0.0288174 -0.986738 -0.633089 -0.080158 -0.273466 -0.107037 0.1687 -0.376744 -0.349491 -0.536718 0.171953 -0.306293 0.517821 0.747292 0.067343 -2.3041 0.600074 -0.0613108 0.318966 0.290499 -0.0920871 0.453775 0.923505 -0.19509 0.30099 0.72417 -0.366641 0.163012 -0.353935 0.274343 -0.486914 -0.0154935 0.129203 0.223654 0.0154811 -0.0228979 -0.379066 -0.764486 0.656456 0.102985 0.505143 0.107068 0.838428 -0.254432 -0.0290885 -0.017136 0.202503 -0.614636 0.449311 0.58327 -0.451449 0.269239 0.699465 -0.0804463 1.53912 -1.06193 -0.601903 -1.02744 -0.215645 -0.235714 0.17922 0.14707 0.240778 -0.186687 -1.49611 -0.0637811 -2.19781 -0.194541 0.268898 0.830564 -0.249651 0.88778 -0.0614225 0.838246 -0.186074 -0.175306 -0.0905712 -0.37051 -0.120484 0.378878 0.193921 0.0745511 -0.135369 1.66396 0.228133 -0.0230225 0.575473 0.276661 0.999906 -0.229398 -0.103697 -1.17562 0.387808 0.107367 -0.223484 -0.0703428 -0.238024 0.494521 -1.40583 0.0146247 -1.06804 0.315708 0.759285 1.45159 0.151408 -1.00613 1.22433 0.656166 -0.798753 -0.0380545 -0.596967 0.329158 -0.243998 0.992251 0.284372 -0.265044 0.103457 -0.0187189 -0.118812 -0.738363 0.242315 -0.418769 0.254587 -0.00204982 -1.28695 -0.713111 -0.719436 -0.822976 0.0740174 -1.34393 0.6058 -0.441443 0.325421 0.502997 1.34437 -1.22856 0.393198 -0.356304 0.3973 0.174234 -0.383095 -0.0013376 0.575903 -1.26587 1.26392 -1.46782 1.02502 -0.464305 0.121268 0.328294 -0.429595 -0.204918 0.20495 -1.76877 0.568341 -0.505646 -1.17006 -0.291776 0.431192 0.451956 0.511663 0.38107 1.40386 0.0270576 0.0930802 0.228593 0.334009 0.0286695 -1.26598 0.376606 0.886959 0.0271465 -0.809143 0.0180278 0.205868 0.102095 0.579212 1.0239 0.432024 0.837648 1.23276 0.493667 0.032452 0.301646 -0.230475 0.0520889 1.02602 -2.1043 -0.0806257 0.387739 0.475298 -0.747299 -1.0051 -0.547835 0.00590133 0.570571 -1.05463 0.286523 0.606431 1.15449 0.392307 0.836399 0.45902 -1.02129 0.214855 -0.226181 0.0592941 0.0290929 0.628631 0.46264 0.48885 0.175174 0.659974 -0.786993 0.815198 0.0238676 -0.725618 0.310579 0.176817 -0.203252 -1.07082 0.0267278 0.197164 0.342244 0.28778 0.185786 0.212939 0.647026 0.416915 -0.160351 0.509733 0.882147 0.461594 -0.103544 0.16411 0.633711 0.841255 0.655211 0.375933 1.03186 -0.075414 0.53792 1.57266 -0.176178 0.164274 0.103312 0.0128518 0.484995 0.773849 -0.15958 0.438469 0.0663155 0.726123 -0.13179 0.734042 0.0651945 0.377106 0.843777 -0.915525 -0.10011 0.228333 0.738179 0.171031 -0.242756 0.0339105 0.733295 
0.730803 1.01605 -0.716276 -0.305034 -0.00532689 0.0535548 0.326091 0.249402 0.398144 -0.00758577 0.0982174 0.418272 1.48954 0.0688938 0.435959 -0.113362 0.306048 -1.39753 -0.626745 0.57281 0.701159 0.72116 -0.0498253 0.71991 0.0414758 -0.184156 0.698545 -0.0141514 -0.00457065 0.477037 0.396153 0.832552 0.412459 0.32394 -0.359079 0.63143 -0.159394 1.13808 -0.221855 0.18179 0.0121624 0.27927 0.521507 0.919381 1.58854 0.1148 1.67778 0.291365 1.32286 0.744022 0.461413 -0.813596 -1.31245 0.400343 1.20057 1.6241 -0.375316 -0.229208 1.49447 1.31241 0.960876 -0.248666 1.59545 0.322602 -0.171598 -0.385191 0.284325 0.271722 -0.306299 -0.228729 -0.930585 1.17326 0.629325 0.43315 -0.0124947 2.53267 1.58424 0.533481 0.484207 0.247254 -0.309901 0.616858 -1.04281 -0.263231 0.548701 0.795072 0.0212164 -0.536837 -0.452718 0.893917 0.99034 -0.861168 -0.18923 0.692582 -0.0578784 1.52087 0.847404 -0.762378 0.532868 0.14522 -0.533849 0.35541 -0.786758 0.889909 -0.114482 1.19378 0.91971 -0.937711 0.0435206 0.286039 0.706461 0.402562 -0.0980794 0.235831 -0.425132 0.292216 -0.0477798 0.704518 0.412346 -0.129182 -0.739307 0.9981 1.04643 -0.158922 -0.428076 0.724348 0.882852 0.56854 -0.129641 0.131945 0.0426538 0.287912 0.389453 1.48746 -0.134478 1.14453 0.641406 -0.187628 0.0189754 -0.101904 1.57971 0.851738 -0.317382 0.307567 1.61584 -0.636352 -0.311002 -0.859269 0.390713 -0.969013 0.9268 0.112699 -0.176987 0.0144399 -0.0314664 0.061145 0.286124 -0.638145 1.1142 -0.344054 0.554924 0.459632 0.374339 0.310328 0.169315 1.63623 -0.454718 0.586608 0.182807 0.951091 1.06615 0.0175236 0.81406 0.797193 -0.204579 0.326555 0.430956 1.39222 -0.548803 0.0136868 0.685523 0.753201 0.200188 1.58485 0.692407 0.860912 0.195352 0.480909 0.315673 -0.36333 0.380265 0.497148 1.01268 1.16312 0.378412 0.060357 1.40005 0.599017 -0.700822 0.211323 0.403517 0.844298 0.399104 0.890969 0.181242 0.408226 0.10556 0.196941 0.086019 0.220366 0.345197 0.869552 0.796399 0.313669 0.321007 1.28667 0.883213 -0.810506 1.81532 -0.583746 0.459229 0.608977 -0.0374269 0.845624 -0.384661 1.60567 0.285883 0.678162 0.170069 0.698838 0.649855 -0.396658 -0.160363 0.907574 -0.0971503 0.15399 -1.15816 -1.91248 0.681603 -0.00854161 0.87061 0.189434 -0.31199 0.729439 0.288959 0.686792 -0.594374 -0.18473 -0.187713 0.272801 -0.669773 -0.0493068 -0.228474 -0.779066 0.849984 -0.824591 0.0993103 -0.233284 -0.159127 0.00226882 1.05149 -0.675428 -0.330411 -0.755051 0.660535 0.0107429 -0.0309912 1.2156 0.207584 -0.11592 0.176924 0.175995 0.619791 -0.770683 0.256748 -0.69552 0.640967 -0.241905 0.63542 -0.892492 0.313977 -0.897222 -0.445347 -0.286026 0.84311 -0.142365 -0.270293 1.12501 -1.03007 -0.134773 0.705393 -1.28844 -0.284471 0.704839 -0.718181 -0.0999506 0.231697 -0.178553 0.0742194 0.381004 -0.958613 0.521408 -0.770972 0.0457163 -1.14914 0.771288 0.0647327 1.33253 0.658842 0.860788 0.0571511 -0.564938 -0.201068 0.701534 -1.30485 1.01587 0.778081 0.719159 -0.295933 -0.481386 0.311877 0.0977993 0.822119 0.130999 1.00881 0.0551479 -0.744557 0.6891 -0.0835171 0.297417 0.349983 0.364113 0.312125 1.03159 -0.866712 0.306806 0.59304 0.984701 -0.862139 -0.601856 0.0486524 0.363354 -0.189556 -0.0960624 -0.11202 -0.365081 0.916781 0.100616 1.14358 0.661883 -0.173612 -0.562859 0.344945 0.477572 0.460705 0.658042 0.587051 -0.426571 -0.0711484 0.205792 -0.972002 1.10171 -0.47409 0.37051 0.568851 -0.837788 -1.04191 0.409246 0.706967 -0.418856 0.706266 0.537945 -0.0629699 1.11865 0.453338 0.926869 0.232093 0.862664 0.702085 0.906593 0.483744 1.36808 -0.0589111 -1.05841 0.905409 -0.339027 0.992526 0.602715 0.700084 0.0528594 0.773447 1.06111 0.312863 1.96813 -0.307434 0.919678 0.171305 0.551159 0.68843 -0.728779 0.272096 -0.306718 0.651358 0.047577 0.179054 1.67321 1.46554 -0.0289061 0.970546 -1.86057 0.149606 -0.873218 0.800084 0.302019 0.675189 1.22237 -1.66632 1.31644 -0.361878 -0.106259 1.58425 0.494246 0.650804 0.666107 0.0904551 0.0215702 -0.111686 0.702634 0.60548 -0.625878 0.647676 -1.18051 0.42701 0.299199 0.0270193 0.472747 -1.31806 0.714531 -0.6977 -0.773901 0.425397 -0.0590384 0.512521 0.547261 -0.638886 -0.260769 0.207062 0.545932 0.506523 -0.146416 -0.193385 0.989071 0.509808 1.38452 0.672177 0.853347 0.591775 0.31846 0.105584 0.165061 1.08904 -1.31381 0.5772 -0.10553 0.176204 0.0783352 -0.259816 0.164474 -0.234389 1.27692 -0.314389 -0.233761 -0.121946 -0.537064 0.072189 0.844493 1.17738 0.00922031 -0.481731 0.413337 0.306028 0.4433 0.678696 0.732975 0.624419 -0.169983 -0.38711 0.547905 0.604951 1.43463 0.272708 -0.100492 0.818913 -1.01787 0.332939 0.825901 1.11634 0.100302 0.0989553 -0.297099 0.422828 0.419705 0.510855 0.0128385 -0.195825 -1.37492 1.44614 0.539056 -0.961342 0.0844101 0.33807 -0.124967 
0.645742 0.141473 1.12024 0.835055 0.343259 1.06495 0.41057 0.361003 0.257761 -0.659465 0.0229104 0.425922 -0.373453 0.564297 0.714011 -1.03965 0.0926871 -0.118167 -0.377472 -0.691132 0.32441 0.52098 -1.46112 1.13492 -0.394177 -0.574608 0.184772 0.795515 1.52288 -1.24804 0.900445 -0.572208 0.539734 -0.795686 1.20275 0.981379 0.980301 0.0433177 0.885364 -0.230528 0.391238 0.326915 0.112276 -0.6394 0.0325315 -0.00112854 0.272743 0.700332 -0.131813 0.878294 -1.1221 -1.59734 0.448026 -0.00228054 1.2711 0.392024 0.57949 1.12245 -0.745749 0.328226 0.688179 0.241709 -0.488054 0.39079 -0.0553134 0.248497 -0.825508 -0.227974 0.310261 1.15818 -1.20258 -0.504642 0.218578 0.496446 -0.0274398 1.00651 -0.0338317 0.87764 1.60557 1.08669 -0.226856 -0.279803 -0.749196 -0.826394 -0.341537 0.340933 0.2355 0.0376185 0.040919 0.359731 0.811133 0.219371 0.681679 -0.607032 0.439255 0.122997 -0.115409 0.399025 1.48538 0.0344427 -0.320312 -0.0379978 -1.43639 0.869983 -0.743985 0.57031 -0.224901 0.233734 0.677641 -0.321725 -0.683491 0.194943 0.318493 -2.28489 -0.0796752 -0.0824207 0.724799 0.105866 -0.0897783 1.50587 -0.0649318 0.940056 0.521998 0.158849 0.651938 -0.356799 -0.781095 -0.259984 -0.376354 -0.242514 0.481339 -0.171443 0.482455 0.990197 -0.940595 0.996655 0.412184 0.129557 0.0920274 0.455187 0.240087 -0.208446 -0.526559 0.406635 1.75324 0.96103 0.955038 -0.656518 0.327659 0.881586 0.37355 0.185064 -0.219104 0.109685 0.264125 -0.635268 0.514556 0.0200097 0.103337 -0.165623 0.538509 -0.0292134 -0.696364 0.071579 0.287299 -0.630213 -0.278315 -0.453269 2.15832 -0.198899 0.0912381 0.234415 0.236865 0.961574 -0.280998 1.26822 -0.762997 0.508129 -0.70813 -1.01814 0.692393 0.322486 0.989432 -0.0909031 1.25935 0.507448 1.88536 0.875556 -0.111254 -0.765173 -0.328052 0.422367 -1.05853 -0.873729 0.333235 -0.597512 0.987738 -0.267254 -0.865868 -0.277679 0.00598902 0.714423 -0.685933 0.313334 0.0698614 0.818039 0.665641 -0.0120097 0.265329 0.33383 0.112706 0.915101 1.12526 -0.607672 0.625329 0.612973 -0.78684 0.556802 1.16768 -0.395887 -0.481221 -1.04975 -0.349998 -1.06817 0.399576 -0.456589 -0.772985 0.909351 1.05464 1.15788 -0.0225662 0.532504 0.196008 1.16993 0.684834 0.113079 -0.396964 -0.0603315 0.151548 0.229054 0.283324 0.200164 1.15692 0.261477 0.74892 -0.049638 0.585806 -1.05237 0.0776023 -0.10539 -1.15211 0.438893 0.715711 -0.347294 -0.0962635 0.293266 -0.219667 0.137992 -0.949569 0.202503 -0.237649 -0.116298 0.634942 -0.794712 0.822566 0.375558 0.58685 0.741053 0.393134 -1.01151 0.288337 0.821503 -0.916258 -0.074444 -0.407283 0.0603116 0.300098 0.621869 -0.402673 0.2133 -0.346519 1.52266 -1.14275 -0.485331 0.335233 0.295889 -0.438157 0.0188538 -0.29861 -0.234331 0.486252 -0.137086 -0.0728605 -0.485158 0.321594 -0.542533 0.069023 0.942828 -0.155994 0.653693 -0.918143 0.26117 0.0694451 0.0240161 0.940426 0.346052 -0.15712 -0.874826 -0.387795 0.496807 0.160958 1.38621 0.802721 0.138879 -0.142513 0.512797 0.552766 0.0211952 -0.112715 0.374547 0.689558 0.783247 1.46707 0.545102 0.371513 -0.229743 -0.518541 -0.416805 -0.0207812 0.465273 -0.238878 -1.11527 -0.620021 0.210704 1.65432 -0.334335 -0.0441349 0.681256 0.132741 0.274512 -0.200625 -0.0611864 0.391669 0.490701 0.50908 -0.572085 -0.560691 -0.423464 0.38816 -0.617072 0.705347 -0.249704 -0.0065719 1.27377 -0.0601246 0.547411 -0.201582 -0.43896 1.22026 0.491256 0.568103 -0.983145 0.205827 0.834825 0.612716 -1.04543 -0.834462 -0.319195 0.198878 0.644053 -0.192783 0.123062 0.548976 -0.0393799 0.655483 -0.423452 0.755033 0.398903 -0.202281 -1.28748 -0.888085 -0.0830303 0.533526 -0.239897 0.167979 -0.337357 -0.343453 0.405084 0.770208 -0.281126 -0.0300686 0.735298 -0.531479 0.329092 0.381773 0.515785 0.132049 -0.9309 -1.47314 0.475047 0.00679261 0.250751 -0.222863 1.02016 0.230333 0.396929 -0.285327 -0.232941 -1.55763 -0.69636 -0.54924 -0.00843587 0.43832 0.300404 0.475197 0.334904 1.10151 1.10892 -0.0754478 0.0910675 0.515785 -0.291393 -0.0908845 0.31053 -0.364303 -0.00474075 -0.566758 -0.110374 0.227934 -0.114432 -0.00913989 -0.327882 1.01969 1.45539 -0.0396448 -0.0348043 -0.204371 -0.348492 1.52875 0.75335 0.631721 -0.0918691 1.61191 -0.678699 0.505309 0.63369 0.706047 -0.942447 -1.28167 0.631678 -0.0758543 0.461713 -0.89089 -1.4403 -0.830951 0.230538 0.0736193 1.03495 -0.614011 -1.27549 -0.00396242 -0.850462 0.222094 -0.617057 0.196763 -1.16239 0.297696 0.227127 0.125436 0.868731 0.617137 0.298329 0.871647 0.507192 -0.0891307 0.0543389 -0.0503839 0.825729 -0.377918 0.0902872 -0.7991 0.400819 0.744641 -0.0196647 0.577743 0.393939 0.536098 0.745184 -0.185111 -0.362988 -0.178907 -0.0375435 0.543407 0.37254 0.00837771 -0.180545 -0.996079 0.542629 0.130048 0.200343 0.454147 0.883455 -0.771012 -0.801834 -0.319951 -0.00477556 -1.11949 0.55012 -0.0648221 -1.33751 0.255805 0.0664803 
0.421797 -0.279997 0.539051 -0.80371 -0.371601 1.18691 -0.430395 0.669742 -0.181122 -0.15029 0.118632 0.647576 0.480168 1.91806 0.0856442 -0.316241 -0.14157 0.481284 -1.00148 0.473664 0.739872 0.691775 0.598185 -0.568888 0.206183 -0.398791 -0.193095 0.60955 0.303875 1.10548 -0.090103 -0.648297 0.502824 -0.499125 0.134126 -0.822981 0.433783 -0.333574 -0.0181449 -0.397232 -0.182096 -0.850518 -0.109586 -0.509257 -0.510939 0.254279 0.0676609 0.290585 0.513616 0.0361612 0.64144 0.799003 -0.449051 0.715371 -1.77628 -1.00351 -0.345704 -0.169027 0.251313 -0.466248 -0.824415 0.404882 0.909298 0.15087 0.50747 -0.0960127 -1.08599 0.141806 -0.281986 -0.0751952 0.152258 -0.529348 -1.17347 -1.01069 -1.08035 0.12901 0.465391 -0.0793773 1.70053 -0.493502 -0.161176 -0.733963 -0.355003 -0.471762 0.0507614 0.116291 -0.797893 -0.7476 -0.395262 -0.0294036 -0.0753653 0.157088 -0.12734 -0.748619 -0.430212 0.564941 0.715497 0.476683 -0.036443 -0.143683 -0.191374 0.944564 -0.36461 -0.194931 -1.0059 0.035104 -0.201904 -2.48445 -0.311171 0.997468 0.183114 0.368874 -1.06668 -0.569973 0.82619 -0.302212 0.00557355 0.389031 0.90942 -0.324912 0.466456 -1.20147 0.211662 1.51033 -0.160493 -1.45007 -1.24772 -0.13223 -0.589679 -1.75732 -0.273889 -0.105878 -0.489603 -0.342297 0.403809 0.24674 -0.307058 0.50627 1.09345 -0.459864 0.637938 -1.16763 0.757732 0.0610048 0.118586 -0.315452 0.673809 -0.932121 0.0998943 0.503406 0.599524 -0.699045 -0.646395 -0.50063 0.579697 0.78588 -0.0983626 -0.3335 -0.000900308 -0.460813 -0.746037 0.854708 0.459295 1.31579 0.711531 0.184019 0.990502 -0.618144 -0.0560337 0.265767 0.507123 0.284839 -1.01625 -0.0353741 0.123206 -0.111448 0.620583 0.926539 -1.3546 1.25914 0.71881 -0.12489 -1.26184 0.377279 0.368014 0.68127 -1.34447 0.390796 -1.27392 -0.788622 -0.95214 -0.666092 0.679422 0.135081 0.0356903 -0.717933 -0.633757 -1.56517 -0.0326686 0.28793 -0.847896 -0.550689 0.802249 -0.407108 -1.48879 -0.339052 0.285293 -1.46508 0.0282965 0.266551 -0.869001 -0.601581 1.31754 0.483527 0.0281235 0.532084 -0.00430112 0.0314307 1.75123 0.179671 -0.650341 0.30658 -0.73259 -0.768046 -1.29715 -0.614644 -0.49895 0.372104 -0.75829 0.51304 0.43823 -0.116534 0.0938671 1.90798 -0.381832 0.279576 -0.840158 -0.336088 -0.126566 0.346969 0.368079 -0.51565 0.928261 -0.435092 -0.216548 -0.339747 0.126998 -0.0715201 0.2127 0.0640304 0.332438 -1.55439 -0.152786 -0.183061 0.755296 -0.670649 -1.04718 1.07144 0.0665745 0.0493668 0.875911 0.267126 -0.360914 0.66636 0.0500607 -0.810906 0.191334 -0.32599 0.120434 0.681235 -0.350384 0.250047 -0.936299 -0.50197 -0.445815 -0.437707 -0.906732 -0.382762 0.407272 -0.819808 0.0948211 -0.16862 0.0792012 0.114861 -0.103042 0.280685 -0.659442 0.427758 -0.192719 0.141676 0.594167 -0.192795 -0.330316 0.20059 -0.537094 -0.219566 -0.538358 0.619633 -0.382363 -1.12552 0.289636 -0.997096 -0.445101 0.445199 0.179379 -1.34209 -0.265144 -0.561624 0.795721 -0.421627 -0.101098 0.15903 0.174476 -1.39343 1.33255 -0.803428 0.188393 -1.44288 -0.0714471 -1.18322 0.351468 0.00452963 0.975461 -1.64767 0.207057 0.487802 0.00878058 -0.127906 -0.0216191 -0.767556 -0.294289 -1.01399 0.846247 -0.0442723 -0.719178 -0.948685 -2.57289 -0.831533 -0.34198 -0.237679 -0.564088 -0.199453 0.789129 -0.548779 -0.882818 -0.611073 -0.60851 -0.891953 1.68122 0.446594 -0.283125 -2.1489 0.051022 0.0751671 0.168161 -0.184576 -0.443019 0.175035 -0.877706 0.709516 0.471986 0.227868 -0.339891 0.632496 -0.338183 -0.239105 -1.0336 0.168699 -0.0362392 -0.100841 0.110234 -0.679837 0.567878 0.496392 0.0880818 0.534685 0.417928 -0.391818 -0.0691848 0.220683 0.698048 0.105991 -0.103712 -0.461813 -0.276884 -2.28032 0.0457268 -0.0142626 0.135406 0.538841 0.740167 0.303409 0.67266 -1.45424 1.3042 0.15542 0.963219 0.551714 -0.584715 0.751909 0.103947 -0.787513 -0.30664 0.246834 0.125656 -0.673572 -0.554284 0.973633 0.0845867 0.704413 -0.426102 0.816278 -0.632871 1.17611 1.13032 -0.053063 -0.0913733 -0.415256 0.394478 -0.142801 -0.559195 -0.638345 -0.400688 -0.463603 0.563813 0.39227 0.810758 -0.319601 -0.0740998 -0.815558 0.668749 -0.563304 0.18215 1.20378 -0.26389 0.0318448 0.323565 0.117356 1.52363 1.05853 -0.528994 0.642662 -1.02675 0.437342 -0.393629 -1.28928 0.274541 -1.41854 0.0351475 0.545833 -0.125375 0.123769 -0.00215237 1.68085 0.453523 -0.599687 -0.560059 -0.279535 0.349262 0.265521 -0.637959 1.84121 -0.662211 0.495885 -0.546799 1.75185 0.228495 -0.125786 -0.120763 0.331014 0.631852 -0.310172 0.149213 -0.0874841 -0.0653306 -0.414292 -0.941102 -0.902575 -1.86706 -1.14721 0.132407 -0.647106 0.833547 0.915605 0.167649 -1.05342 0.136182 -0.521904 0.980151 0.497433 -1.04251 -1.50985 -1.01698 0.242572 0.00621898 0.208605 0.628631 0.48161 0.128264 -0.202652 1.18855 -0.342712 -0.724173 -0.375911 -1.19174 -0.112414 -0.225272 0.550924 0.0618578 0.522642 -0.631491 -0.0323912 
1.81528 -0.655767 0.616509 0.63282 -0.41165 1.45603 0.588421 0.258688 -0.597731 -0.973426 -0.652794 0.340496 -0.427127 -0.0973221 -0.491352 0.158265 -0.216611 0.612567 -0.0969078 0.082097 0.75937 0.358772 -0.143723 0.457516 -0.0814272 0.2847 0.45956 1.53196 -1.44616 -0.0264184 -1.19048 -0.0446696 0.502606 0.105587 -0.0143342 -0.303306 -0.131753 1.66855 -1.03537 0.0372854 0.482769 -1.24632 0.097905 0.184154 -1.33355 -0.178089 -0.0930509 -0.143982 -0.239818 -1.20721 0.642013 0.120146 1.11712 -0.0255921 -0.565718 1.4737 0.31834 -0.0612444 -1.19071 -0.363322 -0.281293 0.589398 -0.746964 0.239811 -0.27002 0.321573 -1.37686 0.245689 -0.00972408 0.19781 -0.306958 -0.473759 0.364092 0.337614 -0.00278999 -0.338916 -1.67286 -0.366116 -1.26837 0.698065 -0.0302245 -0.255462 -0.112409 1.17929 -1.29402 -0.132741 -0.34375 0.462428 -0.259958 -0.13933 0.231684 0.345035 0.321346 0.869007 0.828454 -0.00899529 0.477078 0.107702 0.111647 0.523343 0.638323 -0.0245474 -0.0462127 0.274336 0.98036 0.310677 -0.0365281 -1.16496 -0.817076 0.827988 -0.296399 -0.732886 -1.32259 0.95535 0.398778 -0.451686 -0.187145 -0.280215 -0.911647 0.402242 0.748833 1.14353 -0.138934 0.228955 1.02587 -0.0752736 0.0564229 -1.41499 0.0859248 -0.113245 0.257574 -0.703497 -0.172922 0.266826 -0.435467 1.37076 -0.365193 0.108185 0.216172 0.735906 0.311828 -1.83991 1.23136 0.780638 -1.22147 -0.145667 1.01783 0.473092 0.564423 1.16594 1.04352 0.73568 0.0540602 0.173714 -0.281971 0.8831 0.408985 0.411685 -0.581402 0.0281843 0.597785 -0.248554 -0.516155 0.000696438 0.369955 -0.315111 0.60942 -0.36398 -0.0029692 -0.100189 -0.310068 -0.310291 0.229558 -0.804 0.0927713 -0.103391 0.957474 -1.58926 0.0299134 -0.735168 -0.410593 1.25264 -1.57479 -0.138184 -0.310735 -1.16873 0.797086 -0.0387926 -0.339616 0.260449 0.55633 0.447243 1.01017 -1.87564 1.07207 -0.473193 -0.614255 0.0328864 -0.685233 -0.271778 1.09972 -0.727294 -0.284884 -0.639463 0.445722 0.378594 0.588745 -0.570164 -0.413267 0.260137 0.52807 0.422174 1.51639 -0.377868 -1.71867 0.180522 0.30448 0.703558 -0.481149 -0.352786 0.754015 -0.103606 -0.186334 0.867404 0.870312 0.739345 0.411522 0.36761 0.28508 0.52113 0.346841 -0.241782 0.458615 0.158965 1.03959 -0.31335 0.506236 0.473562 0.161978 -0.354639 -1.03372 -0.0543549 -0.114617 1.01135 -0.783559 -0.631855 0.252852 -0.443389 -0.564562 0.301867 -0.672761 0.514333 -0.724691 0.229389 -0.57048 -0.422641 0.595042 1.22815 -0.866392 0.293046 -0.169877 0.799665 -0.606798 -1.14722 -0.144459 0.942087 0.147164 -0.648748 0.421538 0.476229 -0.766654 -0.464418 0.0634407 -0.398253 -1.70833 -0.932895 -0.889186 0.227579 -0.358612 0.487443 -0.54096 0.470147 -0.796157 1.07974 -1.00915 -0.196722 0.245348 0.0875803 0.985162 0.242257 -0.297849 -0.220399 -1.07769 0.547065 0.248902 1.23839 0.834081 -2.14791 -0.285755 0.0606701 0.509421 0.509554 0.367266 0.42939 0.890989 -0.607493 -0.114483 0.330879 -0.244403 -0.254239 -0.884391 1.06764 -0.0772952 -0.34615 -0.455995 -0.893273 -0.195025 -0.107105 -0.121083 -0.19845 -0.619839 -0.0332443 -1.20186 0.21891 0.754018 2.24766 0.269467 -0.0872826 -0.968489 0.5955 0.252868 -0.0234577 0.0584042 0.654857 0.840771 0.190972 -0.0221012 0.214977 0.232459 0.525251 -0.195322 -0.1638 1.65269 -0.0479439 1.1278 1.29998 0.974732 0.831937 1.42041 0.652343 0.294266 0.102151 -0.374517 0.269837 -1.01832 -0.0407062 0.621065 -0.300604 0.213738 0.619065 0.676722 0.507753 0.799939 0.444969 -0.566177 -0.214059 0.525253 -0.341764 0.107722 1.13657 -0.176309 0.470569 0.915693 -0.228397 -0.58329 -0.543605 0.68655 0.274766 -0.374892 0.513106 -0.189096 -0.964454 -0.861098 0.0114079 -0.519027 0.83273 0.37683 0.506588 0.270549 -0.265492 -0.124123 0.214721 0.24247 0.185676 -0.110156 0.185332 0.422609 -0.288593 -1.4554 0.399617 -1.18758 0.0903596 0.84113 2.61425 0.0500733 -0.10633 -0.973023 -1.24882 0.936752 -0.294986 -0.196536 -0.503838 0.132796 0.468494 -0.36715 -0.154724 -0.837036 1.05482 -0.348895 0.127254 1.20738 -0.354237 0.239957 -0.242571 0.508648 0.811067 -0.754091 0.0571458 0.64611 -0.072978 0.108531 0.896007 -0.682087 -0.454685 0.165792 0.217832 0.168331 0.529227 -0.871741 0.223405 -0.228733 2.08836 0.345306 0.330513 0.597881 0.0715346 -1.19996 -0.613126 -0.440828 0.905633 0.801169 0.577229 0.842381 -0.611137 0.399046 -0.476974 0.942222 0.41786 -0.322304 -0.0588401 0.719791 0.39319 -0.117612 1.17354 -0.00220305 0.111707 -0.277453 -0.214059 0.0298864 0.130833 0.0113765 0.144395 -0.660806 0.0960857 0.552253 -0.339021 0.312936 0.670459 1.05772 0.457362 1.41064 0.167772 -0.502159 0.926577 -0.773043 0.185758 0.175689 1.17939 -0.432531 -0.195784 0.855234 0.488677 -0.368943 0.232183 0.123188 -0.0109929 -0.3118 0.278761 -0.205891 0.241891 -0.622716 0.212041 -0.097982 0.178158 -1.08722 -0.0615869 1.04708 -1.6935 0.196036 0.111424 0.65952 0.235869 
0.139709 0.180327 -0.813594 0.0270833 -0.100716 0.923755 -0.716944 0.255506 0.00184012 1.33359 -0.251767 0.505201 0.264122 -0.32791 0.677976 -0.240486 -0.213382 0.631375 0.398209 0.188455 -0.280467 -0.349846 0.0321549 -1.70364 1.11577 -0.292118 0.154115 -0.716497 0.487953 0.353577 1.05707 0.757007 0.0871288 0.168978 0.441324 -0.125318 0.032961 -1.01222 1.12023 0.309844 0.839257 0.3411 0.575133 -0.259302 -0.109323 1.02118 -0.4293 -0.193905 0.812159 0.818929 0.147175 -0.31333 -0.94801 0.46261 -0.831669 -0.635172 0.283756 0.798218 0.716027 0.160013 0.320666 1.06962 1.02255 0.307755 -0.412973 -0.0500547 0.46367 0.614969 0.662627 -0.430331 0.0919945 -0.288059 -1.16601 0.0900812 0.444301 -0.435687 -0.119564 0.649712 0.177411 -0.200254 0.544311 0.38488 1.60356 -0.133507 -0.540328 -0.39208 0.396522 0.401157 0.523507 0.159657 -1.44484 0.250147 -0.219756 -0.598642 0.698919 0.00319158 -1.51332 0.367266 1.22659 0.599932 0.770189 -0.13577 -0.776976 -0.0774468 0.703771 1.15047 0.0722841 -0.0286568 -0.112798 0.465614 -0.681394 0.220436 0.350697 -0.758249 0.33207 0.361016 0.839094 -0.242757 0.464199 0.476733 -0.325474 -2.10359 0.650575 0.850533 0.124134 0.96842 1.19732 0.147483 2.14851 0.427136 1.2393 0.21973 -2.13312 0.362516 -0.21312 0.418976 0.277288 1.12226 0.0884725 1.08922 0.758139 0.306494 0.419881 0.159268 -0.691073 0.648529 -0.817046 0.963289 0.864867 -1.02516 -0.0809463 0.611624 -0.271677 1.16481 0.676934 0.376968 0.389488 0.202897 -0.73358 0.646669 -0.77984 0.911145 -0.171376 0.157274 0.29436 0.689368 0.168815 0.347914 1.02169 -0.548311 0.752217 0.632324 0.456555 -0.793932 -1.10774 0.0827628 0.623269 1.11594 0.419273 0.56656 0.535199 0.997032 0.323414 1.30706 -0.104402 0.777605 -1.04128 -0.184953 0.578317 0.444235 0.844759 0.501153 0.725188 0.402394 1.12978 0.664274 -0.68678 -0.190727 -0.0563031 1.49779 0.201555 -0.282827 -1.2335 0.684847 0.747877 -1.3009 0.131456 0.509009 0.422909 0.920378 0.164346 0.0482387 -1.22591 0.000206849 1.31728 -0.751757 0.378469 0.359354 0.0866589 0.84394 0.128254 0.204101 1.28124 -0.365761 -0.509592 -0.418212 0.778357 0.207062 0.676658 0.229685 1.71611 0.21775 1.4889 -1.35452 0.85801 0.54795 1.16215 0.082924 0.940775 -0.085174 1.31566 -0.332725 -0.124227 0.700857 0.997928 0.481735 -0.0487254 0.302862 0.411262 0.0675318 -0.287353 0.685783 0.921861 0.2556 0.0493107 0.756175 -0.436176 -0.382303 1.98698 0.40142 0.446063 0.603529 -0.676504 0.0867378 0.145768 0.467036 0.624855 0.588495 -0.586704 1.18193 0.916727 -0.410095 0.0548293 0.672034 0.587789 0.214664 0.373854 0.218117 0.492332 0.791987 0.1193 0.522467 0.453612 0.490445 0.0523984 -0.621014 0.226146 0.5063 0.809162 1.5669 0.571646 0.755001 1.09547 0.998855 0.781418 -0.307148 1.03996 -0.176124 0.226379 0.561586 0.211282 0.718315 0.712436 -0.939527 0.338752 0.648203 0.624455 0.254912 0.675603 1.97733 0.398636 0.345301 1.0814 0.651949 -0.456634 0.471195 0.53231 0.14662 0.148041 0.196232 1.21394 -1.54351 0.0934531 0.268725 0.777835 1.05375 0.883491 -0.58545 0.320295 -0.103499 0.349457 0.327601 -0.473418 1.19371 -0.704456 0.284228 0.126729 1.10075 1.21239 0.205329 0.450805 -0.551297 1.14909 0.429678 -0.677072 1.73251 -0.36185 0.964743 0.451493 0.135101 0.0171023 -0.226716 0.627178 -0.130749 0.137125 0.378994 -0.365257 0.630319 -0.154263 0.308763 -0.315413 1.47081 0.298485 0.27214 0.572277 1.01785 1.08453 0.164341 -0.0169246 1.08016 -0.247172 0.110443 0.314852 0.103529 0.593662 -1.09917 -0.116757 0.347105 0.552246 -0.488306 -0.0665052 1.09605 0.593649 0.468184 1.63094 0.813258 2.10771 0.0456459 0.647875 0.874151 1.05241 1.3984 0.164276 -0.144498 0.282031 -0.100788 -0.0659032 0.25647 0.1385 2.13355 0.900514 -0.053088 1.00516 1.21614 0.386875 -0.738976 1.19644 1.28845 -0.0382435 0.810589 0.58379 -0.463788 0.843767 0.195233 0.390852 0.225778 0.498867 -0.173224 0.45093 0.715414 0.48218 0.675596 0.425249 -0.351746 0.979861 -0.364119 0.436684 0.689259 0.230297 -0.263416 0.301889 0.392199 0.627325 0.19735 0.0950693 0.247703 -0.059677 0.319752 1.49964 0.393071 1.18394 0.584021 -0.520463 -1.39978 -0.124964 1.15443 0.596791 0.735193 -0.5185 -0.120026 0.893633 0.412439 0.861584 -0.240324 -0.883956 0.876164 -0.472112 -1.02565 0.488288 -0.0443716 -0.201024 0.425681 -1.30224 1.1549 0.792949 -0.58945 0.915146 0.661147 -0.327747 -0.636284 0.565329 0.701027 -0.184734 -0.317434 0.142195 -0.904687 -0.0587129 -0.165779 0.684718 0.81267 0.312189 0.456929 -0.348417 -0.878007 0.598353 0.560538 0.132476 -0.243318 0.237068 -0.519562 0.225465 -0.0162413 0.272845 1.25064 0.0862701 0.770697 -0.442843 0.223336 -0.0192256 -0.528089 -0.314478 -1.07259 0.273666 0.942548 3.01144 0.419099 1.18179 0.970844 0.648927 0.31234 0.550406 -0.150962 
0.0959351 0.431381 -0.109861 1.80108 -0.482288 -1.24059 0.0709921 -0.022901 0.490316 -1.16222 1.78829 0.293739 -0.147751 0.297877 0.249625 -0.0465763 0.249494 -0.0904963 0.0470039 -0.443644 -0.0340149 0.408129 1.289 0.820321 -0.610532 -0.24678 0.845244 -0.677458 2.43489 -0.225178 -1.19255 0.134006 -0.240507 0.309299 1.5057 0.172838 -0.022144 0.231224 -0.564419 0.62539 -0.284703 0.657684 -0.0192825 -0.194628 1.90848 -0.00108949 1.12946 0.512017 1.18827 0.307393 0.319399 0.459966 -0.181472 -0.47015 -1.35603 -1.08591 0.150515 0.521453 0.215824 0.616545 0.188708 -0.494928 0.409028 0.614316 -0.511097 0.49379 -0.193054 1.97074 0.599405 0.71171 -0.956401 -0.195252 -0.768948 -1.02113 0.0482202 -1.17243 -0.19782 0.377722 1.20821 0.385254 -1.48983 -0.0725297 -0.369737 -0.527969 -0.679916 0.952379 0.690526 0.944323 -1.3557 0.996115 -0.555369 -0.0993077 0.397639 1.38908 -1.17576 1.33359 0.975851 1.15662 0.967886 0.251529 0.760479 0.425849 0.702185 0.00266495 0.390513 1.30143 -0.395426 0.490517 0.540552 0.61691 -0.862003 0.845121 0.174829 0.369706 0.981411 -1.20451 -0.486342 -0.90346 -0.835303 1.0921 0.115199 0.0596607 -0.595395 0.501374 0.518767 0.0868404 0.317659 -0.100731 -0.384444 -0.210133 0.542796 -0.0323285 0.202275 -1.02797 0.336997 -0.203562 0.00105133 -1.69657 -0.0873068 0.329614 -1.12928 1.45547 1.86762 1.30304 -0.455725 0.720204 -1.41104 0.112327 1.76567 1.04046 0.49321 -0.680082 0.32373 -0.0619091 -0.226604 -0.224191 0.504874 -1.07314 0.460189 -0.859373 0.00664601 0.599645 -0.0188537 -0.866924 -0.0874114 0.410751 -1.30057 -0.13714 0.460626 -0.444335 0.295004 0.830171 -0.99362 -0.0769989 0.100038 0.334133 0.182844 0.792034 -0.308211 0.14335 0.485272 -1.02871 1.20957 -0.780009 -0.106362 0.685391 0.81331 -0.0855651 -0.302314 0.144042 -1.26157 1.33549 1.87836 0.743845 -0.0782106 0.156353 -0.153009 0.072028 -0.0280026 0.100505 -0.0509267 -0.795491 1.58048 -1.3007 0.211108 1.38517 0.385544 -0.0407824 0.468048 0.0700565 0.0562788 0.969555 0.146524 -0.259098 0.676425 -0.729707 -0.107759 -0.179147 1.32457 -0.136782 -0.716733 0.0834832 -0.314554 0.613089 0.951901 0.889129 0.473195 -1.54585 -0.390928 0.837633 -0.552911 -1.49088 -0.638997 0.499171 1.14091 1.15566 0.378404 0.266547 -1.0691 0.00945247 0.824377 0.711984 1.36194 -0.030258 1.42688 0.323961 0.450861 0.0491856 -0.00164198 -0.0553045 1.46803 -0.0251665 1.00147 -0.521276 0.287948 1.10732 -0.014554 0.429399 -0.0475898 0.593951 0.364022 -1.27906 0.875348 0.889652 0.540957 0.787158 -0.111334 -0.130932 0.360405 -0.621513 -0.904063 0.879399 0.296599 -0.223753 1.56455 0.420789 -0.927342 -0.862383 0.23124 0.255928 -1.20448 0.897629 -1.11289 -0.174113 0.652269 1.88009 0.479787 0.795971 0.225769 0.388102 0.117116 0.352905 0.252051 1.37264 -0.0216902 0.591878 -0.174783 0.73442 -0.878602 -0.523858 0.452362 -0.729711 0.0789394 1.07932 -0.57214 -0.363136 0.7469 1.24189 -0.760611 0.376784 -0.508109 0.41529 -0.175933 0.661362 0.436717 0.380335 0.138927 -0.0752394 -0.03501 1.03395 -0.117516 0.0826177 0.577878 -0.0680577 0.282822 0.38448 -0.627393 -0.399267 0.656438 -0.208704 0.874395 0.438991 0.234442 0.179898 0.920457 1.71704 0.249855 0.127733 0.637456 0.00647304 -0.860928 -0.154836 0.993176 -0.0917735 1.32305 2.01903 0.981264 0.533896 -0.158844 1.13327 0.455846 0.725188 -0.301035 -0.04012 1.44376 -0.359824 0.69844 0.626189 0.77769 0.645897 -0.0345954 1.29821 0.445213 0.465156 0.810582 0.346039 -0.09172 -0.68404 1.28468 1.34553 0.440694 0.404225 0.913927 -1.12282 0.305386 -0.208118 -0.352233 0.20592 0.512867 0.941696 0.0646193 0.847045 0.293448 -0.376818 0.847623 0.161149 0.709702 -0.0350119 0.474723 -0.860335 1.40833 -0.299854 1.26719 -1.65954 -0.280946 0.270493 0.0838303 -0.414155 1.3344 0.578714 0.721757 0.260837 -0.682826 -0.180502 -0.0302605 -0.66912 0.251651 -0.985004 0.309904 0.106033 0.603629 -0.607194 0.133334 -0.0415928 1.08055 0.311366 -1.19836 -1.17254 0.113743 0.619787 -0.467459 -0.491812 -0.0965735 -0.303696 -1.00225 1.53322 0.662817 -0.229757 -0.101216 0.323202 0.649181 0.201568 -0.165339 -0.585211 0.585472 0.720221 0.00756806 -0.454646 0.435788 0.926155 -1.66283 0.54912 -0.419714 0.142596 0.780425 0.35073 0.540552 0.153624 0.306237 0.962164 0.709966 -0.003117 0.123481 -0.488727 0.984607 -0.433341 -0.937926 -0.0190076 -0.512374 -0.486929 -0.34565 2.06421 0.431297 0.51862 -0.647912 0.981138 -0.231214 -0.641289 0.824096 -0.204337 0.00184709 0.327238 0.170309 0.636746 -0.479623 -0.604401 0.625181 -0.375141 -0.149774 -0.880439 -0.457733 0.1171 -0.449387 0.969997 0.525263 1.1485 0.418041 1.06331 -0.486866 0.375936 -0.279956 -0.0767965 0.228711 0.304455 0.759523 -0.0728722 0.917838 0.700263 -0.625484 0.508191 0.223496 0.694739 0.126966 0.393033 -0.0618397 -1.5136 2.18592 -0.646838 0.719989 -0.618086 0.987183 0.322057 
-0.209144 -0.792745 -0.574448 -0.231821 -0.528661 -0.120334 -0.720411 -1.00494 -1.05466 -0.476524 1.26851 -0.275604 -0.076997 1.18817 0.100643 -1.57147 0.108041 0.118797 0.365353 -0.807924 0.0937317 0.36822 -0.420739 0.753745 -0.535504 -0.175927 -0.491165 -0.787371 -0.106797 -0.201452 0.867549 0.357362 0.379299 -0.180068 0.39988 0.229349 0.832489 -0.192959 -1.3704 0.192689 0.134299 0.328022 0.160393 -1.07908 0.330623 -0.32123 -1.49019 1.17032 0.0340501 0.121279 0.484656 -0.382377 -1.5367 -0.136023 -0.863122 -0.446849 -0.238122 0.970302 -0.241036 0.0788882 -0.582058 -0.269544 -0.374385 -1.04915 -0.58467 -0.356066 0.405594 -0.525366 -0.434473 0.618804 -0.377029 0.542158 -1.09288 -0.363082 -0.217358 -1.02114 0.0165796 -0.0150301 1.51562 0.0510627 -1.85935 0.334207 -1.68965 -0.579564 -0.721728 -0.892207 -0.290915 -0.601185 -0.535599 0.493615 -0.760847 -0.0105255 0.110993 0.377424 0.636027 -0.0775624 -1.2667 -0.421789 1.58439 -1.41141 -0.211713 0.773726 -0.16485 1.18449 -0.345564 0.31388 0.0898632 0.310569 0.114335 0.0506758 -0.476582 -0.423544 0.868448 -0.480244 -0.793012 -0.191432 -0.332103 0.330422 0.28648 -0.0217702 -1.34087 -1.84655 -0.650966 0.833041 0.240607 -0.801534 -0.241057 0.211715 -0.0645153 0.408049 -0.0547253 0.392208 -0.151682 0.411462 -0.474367 0.124446 0.087313 -1.19111 -0.500077 -0.734593 0.229851 -0.532216 0.277874 0.399205 -0.256692 0.720555 -0.310294 -0.201871 -0.113866 -0.198385 0.130409 0.468286 -0.0809614 -0.595306 -0.554425 -1.4085 -1.09957 0.0180235 -1.42936 -0.384757 0.184192 -0.0729168 -0.522432 0.157102 0.11764 -0.516775 -0.766033 -0.616606 -0.180845 0.428787 -0.478574 -0.0528599 -0.121804 -0.207726 -0.0435251 0.737874 0.21237 -0.854196 0.654983 0.0951428 0.423228 0.666813 -0.281312 -0.318714 -0.468836 0.103115 0.832863 -0.0933374 0.177457 -0.0798948 -0.0147392 0.630848 -0.27545 -0.718039 -0.262343 -1.29615 0.687558 0.0717942 -0.86066 0.384814 0.00129222 0.410482 0.564322 0.0680037 0.311167 0.762584 -0.626842 -1.19587 0.332504 -0.290781 0.137977 0.55855 0.666092 -0.594444 -0.166627 0.639021 -0.149932 0.121781 -0.122816 0.384562 -0.375553 0.293376 0.262881 -1.1865 -0.0281018 0.112609 0.170475 0.981624 -1.07636 0.689511 -0.286817 0.907473 0.718889 0.00824978 -0.243775 1.29721 0.200436 -0.576808 0.0874822 -0.236346 -0.493316 0.0494567 1.30362 -0.212631 -1.39166 -0.674155 0.0545031 0.322878 0.630225 -0.667531 -1.20124 -0.193959 0.843079 0.743941 -0.383896 -0.732695 -0.588398 -0.878246 0.305002 -0.834131 -0.552084 0.39843 0.936032 1.40371 -0.321207 -0.44539 0.189969 -0.660248 -0.458936 -0.248669 -1.44321 -0.313365 -0.0964746 -0.322601 0.625839 -0.256133 -0.316783 -0.755165 -0.179193 -0.689419 -0.307935 0.189493 -0.112327 -0.12978 -0.466242 -0.889622 0.292267 -0.0677559 0.462238 -0.0681226 -0.593533 -0.72585 -0.0946138 -2.09084 -0.791874 -1.34369 0.269924 0.789418 -0.870483 0.745503 -0.0819906 0.35745 -0.772048 0.180541 1.82645 0.218536 -0.520411 0.707448 -0.686892 0.491141 0.711299 0.818854 0.318941 0.041504 -0.812664 0.154786 0.131318 0.418312 0.225908 -0.349236 0.167571 -0.50538 -0.00266211 0.469837 0.271396 0.0573583 0.234758 -0.507 -1.39886 -0.00209184 -0.452282 -1.34296 -0.140127 0.253808 0.681554 0.579482 0.226545 0.784342 -0.0189104 -0.100697 0.205255 -0.563085 0.444815 0.547367 -0.337699 -0.175367 -0.326437 -1.14 -0.744342 0.261344 -0.0545939 -0.44543 -0.375646 0.201423 -2.67275 -1.17446 0.343963 -0.456105 0.334385 -0.466765 0.0312413 0.161113 -0.645844 -0.941903 -0.128186 -0.0488536 0.341324 0.462936 -0.694138 1.27761 -1.32145 -1.12562 0.035434 0.346737 -0.145432 -0.413025 -0.155926 -0.259197 -0.623526 0.186251 -0.925997 1.21468 -0.0273437 -0.470478 0.255752 0.010403 0.446636 0.0566073 0.0368487 -0.185398 0.292792 0.455292 0.432348 -0.332933 -0.0417045 0.620295 0.445514 -0.0338981 -1.06462 0.686102 0.107067 0.87664 0.241543 0.43085 -0.160031 0.536704 0.0376304 0.61352 0.59122 -0.0327522 -0.346615 -0.0982424 0.820927 0.324979 0.611963 0.746983 -0.945465 -1.33924 -0.533975 -0.123478 0.260664 -1.13058 -0.639794 0.143275 -0.734572 -0.173928 -0.052835 0.347843 0.610705 -0.0726836 0.249374 0.147282 0.494089 0.731261 -0.720946 0.256497 -0.136819 -0.570819 1.15033 0.92515 0.363234 -0.85423 0.376066 0.110598 -0.54709 0.648171 0.739216 -0.805417 -0.537959 0.269184 -0.240154 -0.290291 0.60585 0.843716 0.178713 -0.542904 0.205799 -0.101867 -0.329415 -0.917455 1.33898 0.821216 1.2735 -0.483473 0.149076 -0.0654059 0.673842 0.212916 0.282305 -0.962331 0.00515256 -0.41014 -0.0413741 0.493719 -0.290064 -0.228582 -0.534292 -0.132757 0.29889 -0.248062 -0.53252 -0.203556 -0.159665 0.515878 -0.262202 0.0634139 0.327176 -0.22889 -0.446682 -1.09397 -0.319135 -0.293306 0.0193505 0.128143 -1.25854 -0.755323 0.842339 -0.0391443 -0.570076 -0.71141 -0.323419 0.467114 -1.45786 0.183063 0.946995 -1.78365 0.652326 0.761191 -0.0063744 0.09915 0.0612642 -0.403485 
-0.283034 0.310763 1.34878 -0.873042 -0.972534 -0.683544 -0.347767 0.0781294 0.18265 -0.0977304 0.398735 -0.531134 0.294489 0.330434 0.594462 -0.114242 0.621145 1.09587 1.7991 -0.0863311 0.318596 -0.313387 1.18309 0.0566148 -0.302087 0.0921561 -0.349427 0.492142 -0.383226 0.555419 -0.201286 -0.0379021 -0.36887 -0.153114 -0.336698 -0.796726 -0.0993055 1.10235 0.424696 -0.0898134 -0.0688238 0.712586 -0.0484249 -0.815222 0.231126 0.213049 -0.828799 0.951037 0.628167 -0.186079 0.646704 0.578759 -0.0849661 0.0487501 0.75536 0.187223 0.314782 0.0666678 0.53458 -0.044081 0.605925 -0.515318 -0.189255 0.99629 -0.301989 -0.572028 -0.441427 -0.466588 -0.198085 0.0151443 1.40334 -0.82037 0.246266 0.312648 0.609587 0.543749 0.65548 0.142063 -0.873617 0.426899 1.14346 -0.61965 -0.507132 0.487453 -0.159235 -0.584344 0.421163 -0.0495224 1.21695 -0.273951 -1.88523 0.141965 -0.114306 0.0499588 -0.695611 -0.471287 0.00344651 0.564968 1.42158 0.655046 0.177389 -0.026297 0.192109 1.03197 0.743046 0.816965 0.45141 0.362907 -0.0627 0.28597 0.157525 0.0245302 0.840642 0.289825 -0.839624 0.387696 0.152396 -0.185623 -0.851321 -0.735072 1.98732 -0.824379 -0.497108 0.656309 -0.459112 0.240921 -0.035993 0.267611 -0.909376 0.624761 0.736016 1.28172 1.12052 -1.24967 -0.588258 0.572623 -0.357667 0.00227527 -0.52601 0.690418 -0.158578 0.979078 0.326689 -0.859389 0.212554 -0.165932 0.782812 0.16302 -0.6983 -0.333238 0.872068 0.363669 -0.750197 -0.509839 0.253134 -0.457913 -0.0944254 -0.311901 0.389302 0.255159 0.643165 0.506055 0.305266 0.4859 -0.168382 0.835899 0.0452919 -0.178843 -0.39047 0.325757 0.985486 0.0333595 -0.556779 0.175602 0.843102 -0.0698125 -0.169531 0.5613 0.422362 0.500259 0.906829 -0.114315 0.644434 0.44808 -0.240584 0.824606 -0.504714 0.723272 -0.35659 1.37184 0.285674 -0.0467031 0.442088 2.0292 0.150585 -1.04004 0.412841 0.472876 0.392043 -0.143795 0.693561 0.94708 0.553735 0.292974 0.389271 -0.525447 0.437892 -0.447141 0.0440817 0.42322 0.0437383 -0.952586 0.753449 -0.0130622 1.33142 0.828333 0.497843 -1.10731 -0.264542 1.13727 0.63323 0.757807 0.490375 -0.0672152 -0.234104 0.230502 1.08526 1.06855 -2.01783 -0.686938 0.12634 0.295168 -0.446068 -0.0571404 0.180021 -0.505158 -0.340997 0.915997 1.0633 -0.836521 -0.358424 0.651897 0.11327 -0.34269 -0.14639 0.34962 -0.826919 -0.0114458 1.80958 0.735193 1.21382 -0.128664 0.172907 1.07957 -0.419563 -0.581404 -0.651903 -0.175072 -0.423021 0.231884 -0.127349 -0.324522 1.16353 -0.147868 0.348172 0.00208728 0.0284689 0.329137 0.383401 -0.029358 -1.04272 -0.647607 0.0784824 0.424531 -0.337231 0.0753039 0.167697 0.604267 0.627163 0.0650419 0.952825 -0.930488 -0.67595 1.60788 -0.135971 0.779774 0.36803 0.217738 0.569887 0.439436 0.097077 0.0534496 0.399062 -0.287715 1.15714 0.144598 0.468691 0.124839 -0.988685 0.644773 -0.590248 1.05787 -0.857595 1.11379 0.123027 -1.39144 0.752938 0.618586 0.132648 1.68079 0.375998 -0.293043 -0.209106 -0.896136 -0.0047954 1.31769 0.390896 0.0451524 0.840016 0.80873 0.218718 0.0763591 0.130533 0.221756 -0.318659 -0.474544 -0.11971 0.295002 -0.127528 1.77216 -0.3673 0.238157 0.706145 0.289931 0.177573 0.34225 0.582511 -0.616429 0.231094 -0.340997 0.765039 -0.475719 -0.441728 0.0870267 0.821643 -0.688687 0.332742 0.541129 0.495083 0.202446 -0.273988 -0.116376 0.211043 -0.0807141 0.334405 -0.666244 0.405232 -0.159201 -0.589668 -0.914804 0.334169 -0.052317 -0.484242 -0.340744 0.513933 1.3448 1.47568 0.241316 0.0198673 0.358911 -0.651144 -1.43009 0.661951 0.730765 -0.237276 0.552471 1.75547 0.492122 0.400829 -0.215774 -0.720712 -0.974758 0.515789 0.650165 -1.05713 0.778967 -1.18553 0.748044 -0.0224765 -0.10868 0.456466 -1.60708 0.998533 1.00751 0.0525234 0.592167 0.802958 0.340541 -0.521994 -1.26905 -0.169937 0.657662 1.85638 0.344422 0.0998422 1.027 1.17659 1.25436 -0.0825753 0.5178 0.471455 -0.12253 0.0170209 0.63714 0.234524 0.401945 1.91555 -2.02391 0.297498 0.0307958 -0.315967 0.41193 -0.307675 -0.334715 0.669894 -0.254833 -0.15054 -0.506846 -0.122056 0.985861 0.576764 -0.110083 -0.597064 -0.101488 1.03915 -0.632134 1.50394 0.710965 0.18012 0.446356 -0.348525 -0.884661 -1.62815 0.730768 0.348538 0.499653 -0.664641 -0.233747 1.21151 0.326652 0.0955408 1.19524 -0.129416 1.94646 1.06219 0.895145 -0.429161 -0.564527 0.665423 0.155483 0.586435 0.145336 1.39458 0.0195835 0.828611 1.40957 -0.607753 1.12493 0.213365 -0.820598 0.336239 0.0609034 -0.498381 0.619303 -0.261611 0.630465 0.664033 -0.558293 0.714883 -0.0330032 -0.192058 0.391173 0.275557 0.567757 0.167326 -0.728368 0.404538 0.141689 -1.84358 0.1836 -0.612291 0.266372 -0.588491 0.903248 0.104733 -0.278681 1.00919 0.242567 0.244453 -0.370617 0.473794 0.0977195 -0.316615 0.450595 -0.364069 0.690008 -0.391632 -1.15057 0.284277 0.915343 0.221209 -0.611893 
-0.93714 0.471934 -0.0141086 0.353157 0.367929 0.176297 0.100167 0.568161 -0.991168 -0.0710943 0.979977 -0.0294607 0.139788 0.633839 -0.337146 -0.0103306 -0.221773 -0.5284 -0.143596 -1.05135 0.530638 0.438156 -0.802554 -0.564002 -1.18559 0.605887 -0.324058 0.986342 -0.110572 0.259318 0.0814291 -0.313955 -0.070518 0.187615 0.482741 0.168004 0.308975 -0.0209328 0.542651 -0.365754 -0.690149 0.499723 -0.264152 0.100202 0.0157013 -0.513541 -0.160426 -0.512496 0.107131 0.968977 -0.477524 -0.37182 0.854086 0.20476 0.205912 0.452157 0.128336 0.00029203 -0.438848 -0.58353 0.553604 0.0459048 -0.194328 0.141984 0.377295 -0.547655 -0.0422533 -1.20266 0.152247 -2.35346 -0.262697 -0.73075 0.937617 -0.505196 0.997704 0.182479 0.205805 0.0394087 0.194096 0.23976 -0.666225 0.218544 -0.349757 0.00869961 -0.56627 0.365173 0.698661 0.182972 -1.27304 -0.0408282 0.54168 -0.267815 -0.517121 -1.14119 -0.238064 -0.589713 -1.08402 1.5946 1.5377 0.887931 0.395119 0.332045 0.697345 -0.416444 0.194035 0.0540425 -0.0262984 -0.100348 0.55951 -0.0511935 0.351532 -0.602466 -0.290565 -0.35295 1.03078 -0.386858 -1.2072 0.102423 0.417758 0.385116 0.180618 0.11879 -0.446126 -0.00486657 0.339589 -0.595592 -0.180221 0.511243 0.119739 -0.0397898 0.570314 -0.427746 -0.0167805 -0.398555 -0.799339 0.191999 0.335906 0.378556 0.400721 -0.0797258 -0.623374 0.249898 -0.281229 -0.258621 0.18943 -1.05559 0.159123 0.213588 0.467683 0.827411 -0.274136 -0.0966815 0.472577 0.399138 -0.0408838 0.00957421 -0.695098 0.312609 1.20701 -0.571819 -0.353592 -0.789636 -0.640529 -1.28748 -0.511961 -0.132838 0.689855 0.276047 0.0948467 -1.69631 -0.33334 -0.852529 -1.07996 0.0881521 0.0211699 1.127 0.71909 0.174786 -0.237881 0.416731 0.214946 -0.486002 0.316632 1.93909 -0.453536 0.425368 0.894486 0.225273 0.172867 0.0632528 -0.0485757 -0.204427 -0.159747 0.060494 -0.188541 0.177762 -1.90915 -0.855265 0.0836601 0.671247 0.00108613 0.208349 -0.661348 -0.144795 -1.91549 -0.527035 -0.454603 1.02645 0.00786617 -0.393129 -1.10432 0.407196 0.11103 0.902634 0.465001 -0.234191 -0.587395 -0.891682 -0.54797 -0.136778 -0.542445 -0.284689 -0.436031 -0.140741 -0.661451 -0.00460038 -0.249848 0.259287 0.242677 -0.0930962 -0.34548 -0.377826 1.52515 0.64023 0.236546 0.0987164 -0.320771 0.509385 0.729196 -0.033702 -0.804891 0.540588 -0.74942 0.212036 0.394826 -1.02771 -0.403435 -0.177292 -0.251573 -0.316254 0.0830475 -0.727915 0.481389 -0.471683 0.68665 0.0231658 -0.574441 0.831429 0.179876 -0.291704 0.0375454 -0.620716 -1.69951 -0.094799 0.154071 -0.396504 -0.529038 0.667764 0.68957 0.399973 0.98553 0.0789114 -0.3196 -0.18684 -0.302273 -0.395845 -0.888534 0.0170403 -0.395018 0.278711 0.978156 0.319514 -0.0653513 -0.317666 -0.0704375 -0.862527 0.729912 0.0208424 0.585465 -0.48448 -0.884057 -0.996998 -0.612391 0.478465 0.17635 -0.0486217 -0.650618 -0.233166 -0.895859 -0.0905602 -1.20498 0.80655 0.525736 0.896663 1.18444 -0.352253 -0.0777411 0.373398 0.563653 0.19968 0.925678 -0.474931 -0.423881 0.219581 -0.868795 0.800151 -0.208475 -0.908717 -1.14708 0.639439 -0.671135 0.992481 -0.450783 -0.754568 0.310601 -1.17003 0.249121 0.0476952 -0.696448 -1.54267 -0.315359 0.567903 -0.162075 0.265363 -0.906757 -0.356826 -0.247897 0.659884 0.376622 0.41344 -0.317594 -0.0848919 0.179493 -0.625643 0.881486 -0.234891 -0.890712 -0.656117 0.0254546 0.305674 0.0233112 1.96983 -0.255936 0.360808 1.34808 -0.230774 0.253674 -0.633724 -0.662196 1.09837 -0.285514 0.458655 0.364833 -0.296575 -0.226916 0.132298 0.668875 -0.484483 -2.11507 -0.255948 -0.671582 -0.0678733 0.205657 0.92355 -0.351406 -0.719832 -0.34756 -0.0588199 -0.350332 0.737026 -0.910748 0.317676 -2.36717 -0.2024 0.67591 -0.173056 0.801598 0.591311 0.459046 -0.481474 0.631851 -0.745239 0.44317 0.925587 -1.41504 -0.11099 1.2148 -0.12114 -0.0799973 0.0126755 1.13908 -0.403912 -0.137801 -0.30645 0.0870023 0.0586188 0.244835 0.962204 -0.455749 0.64248 0.166443 0.34936 -0.89799 -1.2338 -0.279761 -0.978618 0.674253 0.167785 0.378181 -0.288327 0.112402 0.551422 0.152518 0.15955 1.37713 1.25369 0.201669 -0.855285 -1.19552 -0.00145386 -0.389741 0.948203 -1.01397 0.938925 -0.34789 -0.508397 0.00717238 1.07652 0.552864 -0.4539 0.47289 1.20453 -0.209713 -0.442711 0.126864 0.2344 0.686615 -0.157446 0.561603 0.116873 1.19519 0.0103608 1.25028 0.939523 0.263773 -0.304838 0.416957 0.211124 -0.12407 -0.261172 -0.0595159 -0.452244 -0.392012 -0.441644 -0.542496 0.267596 -0.443627 0.537807 -0.543084 -0.818731 0.216012 -0.114532 0.82141 -1.33246 -0.157072 -0.428978 0.375679 -1.50797 -0.643372 -0.768864 0.906671 0.0229596 -0.767522 0.450545 -0.492473 -0.611602 0.00649032 -0.548024 -0.355308 0.249893 -0.213863 0.423648 -0.0442831 -0.184346 0.343546 0.507506 0.366751 0.980698 -1.17493 0.258439 -0.808459 1.36671 0.0899494 1.16621 0.516381 0.970462 -0.0305643 -0.0440395 -0.388329 -0.161027 -0.0193465 0.0508111 
-0.285921 -1.82564 -0.313802 1.10502 -0.151125 0.622157 -0.142095 0.453584 0.758529 1.47402 0.596377 -0.481724 0.565981 1.29941 -0.154795 -1.50483 1.27811 0.139323 -0.279176 -0.1747 -0.0147376 0.704024 -0.336488 -0.319379 -0.818401 -0.534911 -0.506168 -0.195996 0.518072 -0.555455 -0.401341 0.46436 -0.326942 -0.266419 0.320092 1.11882 -0.111734 -0.297116 -1.27254 -0.805338 0.29892 0.988352 -0.018023 -0.960279 0.500524 0.130413 -0.244109 -0.287755 0.134191 -0.901466 0.0482246 0.30977 -0.0230351 0.379287 -0.172889 0.116792 0.557273 0.579404 0.397171 0.282944 -0.19616 0.386059 0.858681 0.563869 0.678978 -0.405794 -0.748311 -0.867069 -0.0413464 0.0684933 0.405017 -0.925325 0.271044 -0.234157 0.0280759 0.162092 1.07662 1.98713 0.399929 0.789135 0.980933 -0.316388 0.529718 -0.0609215 0.0619468 -0.622579 0.186338 -0.732638 0.0688425 -1.70701 0.372101 -0.669129 1.1475 -0.499508 -0.301676 0.315559 0.84315 1.87986 0.288415 0.385944 -0.0127611 -0.0912649 1.04201 -0.616673 0.0462334 -0.690976 0.46635 -0.359249 0.655089 -0.249457 -1.22036 -0.340684 -1.02932 -0.20253 -0.619009 -0.190581 -0.566067 -0.0266569 -0.679815 -0.519193 -1.31551 0.136069 0.373003 1.81192 0.503151 0.0563546 -0.251074 -0.792946 -0.372372 -0.638051 -0.851418 0.741855 0.995016 -0.619996 -0.0759483 -0.543695 0.320818 0.232458 0.913164 -0.507418 -0.0572103 -0.694592 0.0429196 0.398942 -0.116536 -0.338138 0.393384 -0.0220254 0.057387 1.78981 0.225624 0.0628575 -1.31417 0.586008 0.408076 -0.115963 0.312967 0.920527 0.186783 -0.229822 0.710433 0.179881 0.412078 -1.07666 0.119914 0.793741 0.130299 0.174499 -0.0572309 0.121651 0.982034 0.0343913 -0.220359 0.581847 0.974108 0.449821 0.527944 1.21605 0.0378764 0.487609 0.386075 0.0114617 0.378452 0.128737 -0.819714 0.345587 -0.544294 0.298838 0.357999 0.839902 -1.35881 -0.0574012 0.370453 0.463203 -0.76509 0.265951 0.752467 0.707996 -0.288116 -0.192108 0.0692476 -0.354232 0.197635 -0.45275 0.348053 -0.272412 0.182328 -0.818795 -0.0218823 -0.173863 0.176605 -0.113994 0.302724 -0.122549 -0.0860301 -0.319138 0.336604 0.00190036 -0.559046 0.972462 -0.478401 -0.303242 -0.0164606 0.499276 -0.10864 -0.00995155 0.112769 0.839812 0.474733 0.554671 0.0973469 0.436885 0.762012 -0.643386 -0.949229 0.577175 -0.51667 0.268134 0.584145 0.501982 0.46036 0.282593 0.983301 -0.0125605 -0.445385 1.38418 0.125026 -0.276267 -0.956794 0.0718323 -0.0317026 0.811164 -0.435864 0.660782 -0.6098 1.15507 0.490433 0.925364 0.480277 0.0183024 -0.72312 -0.444388 -1.08611 0.397084 -1.0284 -0.819548 -1.47919 -0.107375 1.15079 -0.449963 0.127286 0.688446 0.557582 -0.0286467 -0.0332555 0.0247998 0.386186 0.404139 -1.43767 -0.126537 1.19989 0.386023 -0.128997 0.718742 0.335229 0.0198033 0.0267356 -0.39234 0.12043 -0.0444245 1.00775 0.752094 -0.540495 0.829511 -0.611706 0.576612 0.794225 0.5144 -0.648281 0.425886 0.512512 0.665924 -0.389927 0.997857 0.661456 -0.569699 0.741385 0.948911 0.683304 0.661514 -1.23669 0.412916 1.01371 0.378329 0.483772 1.37309 -0.798421 0.766143 -0.00473748 0.112925 -0.0601295 -0.138937 -0.554726 0.753636 0.355692 0.00466094 0.339291 0.950746 -0.368942 -0.190312 0.143404 -0.377024 -1.19349 0.347217 1.20483 0.83918 -0.312882 0.124532 -0.0408427 -1.25391 0.570539 0.298689 -0.169326 0.0736974 -1.61518 0.500673 0.393196 0.0636126 -1.83024 -1.11605 0.170362 -0.149041 0.0917804 -0.265665 0.012111 -0.239375 -0.412965 -0.0438567 -1.26323 1.2561 0.79131 -0.526133 -0.457072 -1.07886 0.517907 -0.687462 -0.599831 -0.938052 0.0455003 -1.37459 0.524958 0.244295 0.848548 0.404185 -0.957637 0.941523 -1.46092 -0.418715 0.608018 -0.137331 0.503656 -0.276771 -1.61051 0.509399 0.391055 0.106251 -0.601678 -0.9906 -0.545722 0.5183 1.17402 0.20063 -0.597359 -0.410521 0.494475 -0.51088 -0.462608 -0.101754 0.355988 0.101892 -0.450061 0.656781 1.85671 -0.629734 -0.303906 0.371967 0.787935 0.547222 -0.153138 0.184134 -1.86252 1.09385 -0.191032 -0.514841 0.88558 -0.144994 0.142914 -0.66414 0.738451 -0.343809 -0.137301 0.429111 0.269543 -0.128699 2.08127 0.386388 -0.852299 -0.00342605 -0.893924 -0.401337 -0.0728246 -0.409883 -0.523289 0.751021 0.0596467 -0.614377 -0.225904 0.371965 0.881288 2.01643 -0.934059 -0.478517 0.0310149 0.895768 -0.0618864 0.232619 0.428141 -0.930749 0.0359437 -0.277626 0.516805 0.192914 -0.767573 -0.739828 -0.174186 -0.378299 -0.516641 0.980795 0.541678 0.302253 -0.473128 0.98879 -0.450517 0.188275 -0.426769 0.0511775 0.221195 0.68153 1.61944 0.39294 1.76418 -0.695627 0.438682 0.175845 0.0220831 0.916811 -0.511193 0.461358 -0.462436 -0.424127 0.319476 0.151321 0.195345 0.132125 0.360534 -1.32004 -1.32317 0.591206 1.32975 -0.979708 0.787648 -0.100013 1.2303 0.0905363 -0.227411 -0.412529 -1.13171 0.930909 0.0239721 -1.15817 1.2279 -1.39897 0.506361 -0.673814 -0.211567 0.923436 -0.250993 -0.692684 0.311928 -0.702391 -0.79193 0.844274 
0.192149 1.33739 1.71032 0.968638 1.46079 -0.586683 0.576357 0.248855 -0.357323 -0.892379 -0.0322192 0.183774 -1.43012 0.46542 -0.521217 -0.055975 -0.912867 -0.223657 -0.236026 -0.219995 1.02845 0.258657 0.440686 0.362947 -0.194382 0.552539 -0.442305 0.761562 0.401335 -0.590257 -0.00959609 -0.706427 0.00348957 -1.19209 -0.481512 -0.627753 1.70051 1.27033 -0.261354 -0.393743 -0.017053 -0.126122 -0.124027 -0.212305 -0.474871 0.0706251 -0.264378 -1.18376 0.432413 1.24155 0.655102 0.49949 0.924408 -0.287001 1.38132 -0.0412493 0.186491 0.481279 1.73725 -1.53914 0.321521 -1.64887 0.433522 0.472819 -0.322169 0.540612 0.878724 0.396656 0.448433 -1.6391 0.270811 -0.955468 0.858282 0.026322 1.64694 0.19445 0.983176 -0.271425 0.866237 0.00880468 0.841041 -0.79431 -0.109594 -0.227452 0.567336 -0.0488963 0.410251 -0.0953511 0.759409 -1.60327 0.688411 -0.319453 0.828418 -0.232169 0.631436 0.101706 0.493585 1.46201 -0.352307 0.223895 -0.265734 0.65567 1.40305 -0.0704738 0.762486 1.51814 0.127209 -0.143293 -0.461148 -0.0205607 0.569791 -0.898732 0.500682 0.899507 0.451635 0.660456 0.422139 -0.785123 0.297402 -0.231765 1.03751 1.06549 0.267328 -0.160748 -1.0942 -0.1202 -0.248871 -0.279109 -0.593063 -0.304141 0.121589 0.940545 0.285825 0.796133 0.605328 -0.288937 -0.144194 0.0625225 -0.0323672 -0.824925 1.03876 -1.02252 0.885996 -0.628021 1.19579 0.863849 0.484876 0.294271 -1.07663 0.330743 0.540631 1.3654 -0.0514775 0.625195 0.0162221 -0.851096 0.104416 0.260991 -0.570529 0.0578264 0.260216 -0.0380144 1.25139 0.574298 -1.2518 -0.0341678 0.904279 -0.165182 -0.0763831 -0.437356 0.64183 -0.213224 -0.602633 0.716004 0.436723 0.171192 0.519738 -0.223609 -0.34194 -1.03845 -0.888791 0.353838 -1.34978 -1.23764 -0.241484 -0.575997 1.95642 0.551377 -0.113628 -0.132476 0.149498 -0.331014 -0.0473065 0.700657 -0.783904 0.537522 0.113298 -0.645738 0.639158 0.275508 0.883602 0.256089 0.0615492 1.52664 -0.468736 -1.02033 0.310357 -0.714507 0.763682 -0.165281 -0.256067 -0.0996717 0.810484 0.800405 0.627939 -0.92977 0.455028 0.460242 2.25586 -0.181216 -0.707388 1.0796 -1.76214 0.00663374 0.249414 -0.55343 -0.651977 0.30346 0.475071 -0.696927 -0.274175 -0.279674 0.601793 0.275048 -1.28263 0.804662 -0.18758 0.827886 -0.0687367 -0.159885 0.844632 -0.0410513 0.83649 -0.478568 0.790017 0.422515 0.628386 1.17918 1.08319 0.0905202 0.22883 -0.372115 -0.0931268 0.098607 -0.0776814 -0.994939 -0.409774 0.122346 0.779318 0.324775 -0.0771331 -0.815775 -0.459629 1.30173 0.318192 -0.112434 0.754416 -0.102319 -0.0274033 0.441062 -0.571234 0.320197 -0.123371 0.585053 1.1258 0.21029 -1.71092 1.09306 -0.582681 0.145053 0.0621858 -0.0978519 0.442466 -0.082445 0.0437229 0.864288 0.208897 0.300743 1.03486 0.136 0.00872447 0.650799 0.871181 -1.23562 0.247744 -0.0495454 -0.850894 -0.0570937 0.00143037 0.548125 0.83304 0.358268 0.95645 0.599385 1.02833 0.450371 -1.13662 -0.173329 0.497105 1.05559 1.5256 -0.140182 0.652933 0.147161 -1.1897 0.863073 0.727696 -0.708812 0.203446 -0.101253 0.681959 0.835376 0.189304 -1.01552 -0.298076 0.857143 -1.16079 0.287964 -0.0763444 0.549962 0.437464 -0.131424 -0.506321 -0.446689 0.0532991 -0.240618 -0.468894 0.627775 0.515712 0.520898 -0.0293793 0.860956 1.11952 0.308515 0.711034 0.0177827 0.542181 -0.174775 1.82222 0.174365 0.414144 1.92283 0.823125 -0.0156256 0.546786 0.018775 -0.307889 0.529246 0.712543 0.465243 -0.456375 0.106673 -0.641878 0.268599 0.0623287 0.0295227 1.09098 -0.345655 1.04405 -1.10802 0.0603409 0.589357 -0.442222 0.028382 0.0976984 0.892613 -0.684395 -0.187152 0.170333 0.323427 -0.682965 0.218021 -0.114381 0.078782 0.736472 0.558505 0.0655905 -0.381603 -1.14308 -0.580094 -0.210685 -0.649901 0.254515 0.0767274 -0.285425 -0.441481 1.12511 -1.43394 -1.3997 -1.09056 0.305676 0.808727 0.0689468 1.18551 0.167277 1.29252 0.353149 1.18597 -0.0451145 0.725529 0.141668 -0.137786 -0.17629 -0.264302 -0.64671 -0.350181 0.692478 0.0511794 -0.0184979 -0.291866 -0.439852 0.92749 -0.313935 -0.76899 0.19934 -0.490272 0.381881 -0.779493 0.38362 -0.803388 0.293669 1.50198 0.176181 0.047694 0.209576 -0.406658 -0.587489 0.251063 1.83453 -0.274585 -0.735634 0.295414 0.369784 0.544396 0.475079 -0.348036 1.0829 -0.312245 0.766976 -1.02422 0.137829 0.86555 -0.417433 -0.938441 0.929525 0.748512 0.14043 -0.365889 0.162977 0.973096 -0.103307 -0.397473 0.438327 -0.389361 0.140581 -0.168868 0.896641 0.398839 -1.08214 -0.287625 0.157797 0.0419538 0.450137 -0.368418 -0.845157 0.982609 -0.772313 -0.613824 0.953766 -1.41213 -0.257526 0.113068 1.27056 -0.105225 -0.206466 0.550228 1.21172 0.111337 -0.488849 -0.501876 -1.63812 0.0708652 -0.823838 0.111492 -0.0559017 -0.0636783 0.37835 -0.9949 0.153396 -0.456374 -1.66549 0.892607 0.0303789 -0.74978 1.14044 0.51847 0.0885644 -0.224458 0.157321 -0.984206 -1.00252 -0.388829 
